{"learner":{"attributes":{"scikit_learn":"{\"_estimator_type\": \"regressor\"}"},"feature_names":["price_tier","has_outdoor_seating","is_vegan_friendly","good_for_dates","good_for_groups","quiet_ambiance","has_cocktails","cuisine_american","cuisine_chinese","cuisine_ethiopian","cuisine_french","cuisine_greek","cuisine_indian","cuisine_italian","cuisine_japanese","cuisine_korean","cuisine_mediterranean","cuisine_mexican","cuisine_peruvian","cuisine_spanish","cuisine_thai","cuisine_vietnamese","context_Date Night","context_Group Hang","context_Late Night Eats","context_Quick Lunch","context_Weekend Brunch"],"feature_types":["float","float","float","float","float","float","float","float","float","float","float","float","float","float","float","float","float","float","float","float","float","float","float","float","float","float","float"],"gradient_booster":{"model":{"cats":{"enc":[],"feature_segments":[],"sorted_idx":[]},"gbtree_model_param":{"num_parallel_tree":"1","num_trees":"100"},"iteration_indptr":[0,1,2,3,4,5,6,7,8,9,10,11,12,13,14,15,16,17,18,19,20,21,22,23,24,25,26,27,28,29,30,31,32,33,34,35,36,37,38,39,40,41,42,43,44,45,46,47,48,49,50,51,52,53,54,55,56,57,58,59,60,61,62,63,64,65,66,67,68,69,70,71,72,73,74,75,76,77,78,79,80,81,82,83,84,85,86,87,88,89,90,91,92,93,94,95,96,97,98,99,100],"tree_info":[0,0,0,0,0,0,0,0,0,0,0,0,0,0,0,0,0,0,0,0,0,0,0,0,0,0,0,0,0,0,0,0,0,0,0,0,0,0,0,0,0,0,0,0,0,0,0,0,0,0,0,0,0,0,0,0,0,0,0,0,0,0,0,0,0,0,0,0,0,0,0,0,0,0,0,0,0,0,0,0,0,0,0,0,0,0,0,0,0,0,0,0,0,0,0,0,0,0,0,0],"trees":[{"base_weights":[-5.951537E-9,-3.3635583E-2,1.2239612E-1,-5.320955E-2,1.6385727E-1,1.5148136E-1,-5.17798E-1,-8.999032E-2,5.605751E-2,2.517197E-1,7.736099E-2,2.2401254E-1,1.5719516E-3,-2.8565553E-1,-1.6606727E-1,-1.4595124E-1,2.001589E-2,9.178551E-2,-2.6903653E-1,3.8972932E-1,4.3163728E-2,1.1030997E-1,-3.928072E-2,2.486577E-1,-2.993929E-1,3.992906E-2,-6.171329E-1,-5.8275063E-2,-1.3273393E-1,-1.7915983E-1,1.718116E-2,-2.209974E-1,9.5914945E-2,6.5252624E-2,4.0863135E-1,-4.1443172E-1,9.908273E-2,4.531857E-1,7.706574E-3,-3.3050288E-2,3.4082584E-2,7.2340354E-2,4.3627802E-1,2.8554848E-1,-2.1584481E-2,2.5674325E-1,-4.919081E-1,9.586934E-2,-3.916084E-1,-8.494363E-1,5.044955E-2,-2.919081E-1,3.4082583E-1,-1.67801E-2,-6.3450836E-2,-3.036963E-2,2.2508573E-2,-1.6968748E-2,-1.24325685E-1,1.1114798E-2,-1.3273393E-1,7.2084055E-3,-9.955045E-2,-1.3515057E-2,5.8746517E-2,8.173639E-4,-6.7907095E-2,7.992003E-4,3.3932734E-2,4.9356703E-2,6.743252E-4,2.071928E-2,-3.2733932E-2,8.4290653E-4,-1.0311911E-2,-1.5032593E-3,2.3585504E-2,6.726607E-2,2.071928E-2,2.5308026E-2,5.738175E-2,-2.0593693E-2,1.08541455E-2,3.3932734E-2,4.4955016E-4,-1.5917417E-2,-7.928073E-2,1.1605359E-2,-4.9325675E-2,3.0809192E-2,-1.4925075E-1,-9.928072E-2,-3.2733932E-2,-4.9325675E-2,-1.3515057E-2,5.994002E-4,5.0674327E-2],"categories":[],"categories_nodes":[],"categories_segments":[],"categories_sizes":[],"default_left":[0,0,0,0,0,0,0,0,0,0,0,0,0,0,0,0,0,0,0,0,0,0,0,0,0,0,0,0,0,0,0,0,0,0,0,0,0,0,0,0,0,0,0,0,0,0,0,0,0,0,0,0,0,0,0,0,0,0,0,0,0,0,0,0,0,0,0,0,0,0,0,0,0,0,0,0,0,0,0,0,0,0,0,0,0,0,0,0,0,0,0,0,0,0,0,0,0],"id":0,"left_children":[1,3,5,7,9,11,13,15,17,19,21,23,25,27,-1,29,31,33,35,37,39,41,-1,43,45,47,49,51,-1,53,55,57,59,61,63,65,67,69,71,73,-1,75,77,79,81,83,85,87,89,91,-1,93,95,-1,-1,-1,-1,-1,-1,-1,-1,-1,-1,-1,-1,-1,-1,-1,-1,-1,-1,-1,-1,-1,-1,-1,-1,-1,-1,-1,-1,-1,-1,-1,-1,-1,-1,-1,-1,-1,-1,-1,-1,-1,-1,-1,-1],"loss_changes":[8.2501955E0,6.0856285E0,8.122364E0,5.756128E0,1.0596948E0,4.501113E0,4.566505E0,6.5960484E0,4.2176943E0,1.9979692E0,1.1742147E0,3.6733818E0,3.252156E0,3.9492443E0,0E0,3.849431E0,6.6431475E0,2.7139642E0,1.9678824E0,1.0146618E0,6.691591E-1,8.224445E-1,0E0,2.668007E0,1.5181344E0,3.1516457E0,2.5130012E0,1.498137E0,0E0,2.9451408E0,8.140496E0,4.352364E0,6.131339E0,2.2602005E0,2.510561E0,2.9133372E0,2.3801269E-1,6.4567804E-1,5.3568166E-1,7.0623025E-2,0E0,9.036113E-1,2.3969185E-1,2.0542812E0,8.139909E-1,8.180112E-2,8.7499905E-1,1.4247167E0,1.2014321E1,1.9898987E-1,0E0,2.4896526E-1,3.3028919E-1,0E0,0E0,0E0,0E0,0E0,0E0,0E0,0E0,0E0,0E0,0E0,0E0,0E0,0E0,0E0,0E0,0E0,0E0,0E0,0E0,0E0,0E0,0E0,0E0,0E0,0E0,0E0,0E0,0E0,0E0,0E0,0E0,0E0,0E0,0E0,0E0,0E0,0E0,0E0,0E0,0E0,0E0,0E0,0E0],"parents":[2147483647,0,0,1,1,2,2,3,3,4,4,5,5,6,6,7,7,8,8,9,9,10,10,11,11,12,12,13,13,15,15,16,16,17,17,18,18,19,19,20,20,21,21,23,23,24,24,25,25,26,26,27,27,29,29,30,30,31,31,32,32,33,33,34,34,35,35,36,36,37,37,38,38,39,39,41,41,42,42,43,43,44,44,45,45,46,46,47,47,48,48,49,49,51,51,52,52],"right_children":[2,4,6,8,10,12,14,16,18,20,22,24,26,28,-1,30,32,34,36,38,40,42,-1,44,46,48,50,52,-1,54,56,58,60,62,64,66,68,70,72,74,-1,76,78,80,82,84,86,88,90,92,-1,94,96,-1,-1,-1,-1,-1,-1,-1,-1,-1,-1,-1,-1,-1,-1,-1,-1,-1,-1,-1,-1,-1,-1,-1,-1,-1,-1,-1,-1,-1,-1,-1,-1,-1,-1,-1,-1,-1,-1,-1,-1,-1,-1,-1,-1],"split_conditions":[1E0,3E0,3E0,1E0,1E0,1E0,1E0,1E0,1E0,1E0,1E0,1E0,1E0,1E0,-1.6606727E-1,1E0,2E0,1E0,1E0,1E0,1E0,1E0,-3.928072E-2,1E0,2E0,1E0,1E0,1E0,-1.3273393E-1,1E0,2E0,1E0,1E0,1E0,2E0,2E0,1E0,1E0,1E0,1E0,3.4082584E-2,1E0,1E0,1E0,1E0,1E0,1E0,1E0,2E0,1E0,5.044955E-2,1E0,1E0,-1.67801E-2,-6.3450836E-2,-3.036963E-2,2.2508573E-2,-1.6968748E-2,-1.24325685E-1,1.1114798E-2,-1.3273393E-1,7.2084055E-3,-9.955045E-2,-1.3515057E-2,5.8746517E-2,8.173639E-4,-6.7907095E-2,7.992003E-4,3.3932734E-2,4.9356703E-2,6.743252E-4,2.071928E-2,-3.2733932E-2,8.4290653E-4,-1.0311911E-2,-1.5032593E-3,2.3585504E-2,6.726607E-2,2.071928E-2,2.5308026E-2,5.738175E-2,-2.0593693E-2,1.08541455E-2,3.3932734E-2,4.4955016E-4,-1.5917417E-2,-7.928073E-2,1.1605359E-2,-4.9325675E-2,3.0809192E-2,-1.4925075E-1,-9.928072E-2,-3.2733932E-2,-4.9325675E-2,-1.3515057E-2,5.994002E-4,5.0674327E-2],"split_indices":[25,0,0,23,5,1,16,26,7,3,13,15,7,14,0,17,0,8,3,19,24,2,0,14,0,13,3,1,0,21,0,16,15,18,0,0,2,10,24,22,0,6,3,7,5,3,6,15,0,4,0,6,6,0,0,0,0,0,0,0,0,0,0,0,0,0,0,0,0,0,0,0,0,0,0,0,0,0,0,0,0,0,0,0,0,0,0,0,0,0,0,0,0,0,0,0,0],"split_type":[0,0,0,0,0,0,0,0,0,0,0,0,0,0,0,0,0,0,0,0,0,0,0,0,0,0,0,0,0,0,0,0,0,0,0,0,0,0,0,0,0,0,0,0,0,0,0,0,0,0,0,0,0,0,0,0,0,0,0,0,0,0,0,0,0,0,0,0,0,0,0,0,0,0,0,0,0,0,0,0,0,0,0,0,0,0,0,0,0,0,0,0,0,0,0,0,0],"sum_hessian":[2.002E3,1.571E3,4.31E2,1.43E3,1.41E2,4.13E2,1.8E1,1.07E3,3.6E2,6.9E1,7.2E1,2.78E2,1.35E2,1.6E1,2E0,7.09E2,3.61E2,3.25E2,3.5E1,4.1E1,2.8E1,6.8E1,4E0,2.66E2,1.2E1,1.28E2,7E0,1.4E1,2E0,5.89E2,1.2E2,8.6E1,2.75E2,3.01E2,2.4E1,2.5E1,1E1,3.5E1,6E0,2.3E1,5E0,6.2E1,6E0,2.34E2,3.2E1,3E0,9E0,1.14E2,1.4E1,6E0,1E0,9E0,5E0,5.76E2,1.3E1,4.7E1,7.3E1,8.3E1,3E0,2.73E2,2E0,3E2,1E0,6E0,1.8E1,1E1,1.5E1,8E0,2E0,3.2E1,3E0,4E0,2E0,1.5E1,8E0,4.1E1,2.1E1,2E0,4E0,2.12E2,2.2E1,1.3E1,1.9E1,2E0,1E0,5E0,4E0,1.11E2,3E0,9E0,5E0,4E0,2E0,3E0,6E0,2E0,3E0],"tree_param":{"num_deleted":"0","num_feature":"27","num_nodes":"97","size_leaf_vector":"1"}},{"base_weights":[-4.1586926E-4,-3.046097E-2,1.0891588E-1,-4.818939E-2,1.4841108E-1,1.3578834E-1,-4.8235336E-1,-8.1319004E-2,5.023167E-2,2.2744246E-1,7.0594534E-2,2.0165487E-1,-3.3334774E-4,-2.6557827E-1,-1.5499611E-1,-1.3148014E-1,1.7287986E-2,8.24625E-2,-2.4303168E-1,3.5166153E-1,3.969612E-2,1.0087412E-1,-3.6138266E-2,2.2406526E-1,-2.741319E-1,-7.381601E-2,2.7333772E-1,-5.321868E-2,-1.2388501E-1,-1.613798E-1,1.53981475E-2,-2.0052175E-1,8.588277E-2,5.842165E-2,3.6957744E-1,-3.755689E-1,9.233189E-2,2.5542006E-1,5.9966755E-1,-3.0139765E-2,3.1242361E-2,6.545679E-2,4.052195E-1,2.5734562E-1,-1.9721111E-2,2.3966438E-1,-4.522372E-1,-3.413077E-2,-5.656152E-1,1.2254891E-1,4.2614368E-1,-2.690014E-1,3.1528893E-1,-1.5104996E-2,-5.7558972E-2,-2.7395949E-2,2.028815E-2,-1.5292074E-2,-1.15001254E-1,1.000737E-2,-1.2388501E-1,6.4899656E-3,-9.4572924E-2,-1.2356629E-2,5.3181052E-2,7.4306404E-4,-6.154081E-2,7.281622E-4,3.1670537E-2,6.148696E-4,3.526937E-2,7.6770745E-2,3.9397225E-2,1.1323198E-3,-8.932023E-3,-1.3565155E-3,2.1334156E-2,6.2781654E-2,1.9061737E-2,2.2789119E-2,5.189305E-2,1.4094274E-2,-1.6143782E-2,3.1670537E-2,4.2706728E-4,-1.4590974E-2,-7.293827E-2,2.2505138E-3,-3.6034364E-2,-7.833519E-2,4.792707E-2,3.0527893E-2,-5.019609E-2,2.1989822E-2,6.644879E-2,-4.562625E-2,-1.2356629E-2,5.594412E-4,4.687376E-2],"categories":[],"categories_nodes":[],"categories_segments":[],"categories_sizes":[],"default_left":[0,0,0,0,0,0,0,0,0,0,0,0,0,0,0,0,0,0,0,0,0,0,0,0,0,0,0,0,0,0,0,0,0,0,0,0,0,0,0,0,0,0,0,0,0,0,0,0,0,0,0,0,0,0,0,0,0,0,0,0,0,0,0,0,0,0,0,0,0,0,0,0,0,0,0,0,0,0,0,0,0,0,0,0,0,0,0,0,0,0,0,0,0,0,0,0,0,0,0],"id":1,"left_children":[1,3,5,7,9,11,13,15,17,19,21,23,25,27,-1,29,31,33,35,37,39,41,-1,43,45,47,49,51,-1,53,55,57,59,61,63,65,67,69,71,73,-1,75,77,79,81,83,85,87,89,91,93,95,97,-1,-1,-1,-1,-1,-1,-1,-1,-1,-1,-1,-1,-1,-1,-1,-1,-1,-1,-1,-1,-1,-1,-1,-1,-1,-1,-1,-1,-1,-1,-1,-1,-1,-1,-1,-1,-1,-1,-1,-1,-1,-1,-1,-1,-1,-1],"loss_changes":[6.582939E0,4.9921513E0,6.9294863E0,4.6700764E0,8.572366E-1,3.7119346E0,3.985549E0,5.2996964E0,3.4322565E0,1.6185579E0,9.913008E-1,3.0362787E0,2.7551477E0,3.447691E0,0E0,3.1205263E0,5.425723E0,2.228619E0,1.6348104E0,8.493085E-1,5.617551E-1,7.172335E-1,0E0,2.1713266E0,1.2980132E0,2.0885491E0,6.15978E-1,1.2775767E0,0E0,2.4375029E0,6.6197996E0,3.756253E0,5.312554E0,2.0258563E0,2.065819E0,2.3928883E0,2.0760715E-1,7.7375245E-1,7.775998E-2,5.9902526E-2,0E0,7.3912096E-1,2.1471584E-1,1.6923761E0,7.7412224E-1,7.118732E-2,7.425487E-1,1.8741212E0,2.195517E0,1.9791049E0,5.420842E-1,2.1596467E-1,2.8251094E-1,0E0,0E0,0E0,0E0,0E0,0E0,0E0,0E0,0E0,0E0,0E0,0E0,0E0,0E0,0E0,0E0,0E0,0E0,0E0,0E0,0E0,0E0,0E0,0E0,0E0,0E0,0E0,0E0,0E0,0E0,0E0,0E0,0E0,0E0,0E0,0E0,0E0,0E0,0E0,0E0,0E0,0E0,0E0,0E0,0E0,0E0],"parents":[2147483647,0,0,1,1,2,2,3,3,4,4,5,5,6,6,7,7,8,8,9,9,10,10,11,11,12,12,13,13,15,15,16,16,17,17,18,18,19,19,20,20,21,21,23,23,24,24,25,25,26,26,27,27,29,29,30,30,31,31,32,32,33,33,34,34,35,35,36,36,37,37,38,38,39,39,41,41,42,42,43,43,44,44,45,45,46,46,47,47,48,48,49,49,50,50,51,51,52,52],"right_children":[2,4,6,8,10,12,14,16,18,20,22,24,26,28,-1,30,32,34,36,38,40,42,-1,44,46,48,50,52,-1,54,56,58,60,62,64,66,68,70,72,74,-1,76,78,80,82,84,86,88,90,92,94,96,98,-1,-1,-1,-1,-1,-1,-1,-1,-1,-1,-1,-1,-1,-1,-1,-1,-1,-1,-1,-1,-1,-1,-1,-1,-1,-1,-1,-1,-1,-1,-1,-1,-1,-1,-1,-1,-1,-1,-1,-1,-1,-1,-1,-1,-1,-1],"split_conditions":[1E0,3E0,3E0,1E0,1E0,1E0,1E0,1E0,1E0,1E0,1E0,1E0,1E0,1E0,-1.5499611E-1,1E0,2E0,1E0,1E0,1E0,1E0,1E0,-3.6138266E-2,1E0,2E0,1E0,2E0,1E0,-1.2388501E-1,1E0,2E0,1E0,1E0,1E0,2E0,2E0,1E0,1E0,1E0,1E0,3.1242361E-2,1E0,1E0,1E0,1E0,1E0,1E0,1E0,1E0,1E0,1E0,1E0,1E0,-1.5104996E-2,-5.7558972E-2,-2.7395949E-2,2.028815E-2,-1.5292074E-2,-1.15001254E-1,1.000737E-2,-1.2388501E-1,6.4899656E-3,-9.4572924E-2,-1.2356629E-2,5.3181052E-2,7.4306404E-4,-6.154081E-2,7.281622E-4,3.1670537E-2,6.148696E-4,3.526937E-2,7.6770745E-2,3.9397225E-2,1.1323198E-3,-8.932023E-3,-1.3565155E-3,2.1334156E-2,6.2781654E-2,1.9061737E-2,2.2789119E-2,5.189305E-2,1.4094274E-2,-1.6143782E-2,3.1670537E-2,4.2706728E-4,-1.4590974E-2,-7.293827E-2,2.2505138E-3,-3.6034364E-2,-7.833519E-2,4.792707E-2,3.0527893E-2,-5.019609E-2,2.1989822E-2,6.644879E-2,-4.562625E-2,-1.2356629E-2,5.594412E-4,4.687376E-2],"split_indices":[25,0,0,23,5,1,16,26,7,3,13,15,17,14,0,17,0,8,3,13,24,2,0,14,0,7,0,1,0,21,0,16,15,18,0,0,2,6,26,2,0,6,3,7,2,3,6,13,3,3,6,6,6,0,0,0,0,0,0,0,0,0,0,0,0,0,0,0,0,0,0,0,0,0,0,0,0,0,0,0,0,0,0,0,0,0,0,0,0,0,0,0,0,0,0,0,0,0,0],"split_type":[0,0,0,0,0,0,0,0,0,0,0,0,0,0,0,0,0,0,0,0,0,0,0,0,0,0,0,0,0,0,0,0,0,0,0,0,0,0,0,0,0,0,0,0,0,0,0,0,0,0,0,0,0,0,0,0,0,0,0,0,0,0,0,0,0,0,0,0,0,0,0,0,0,0,0,0,0,0,0,0,0,0,0,0,0,0,0,0,0,0,0,0,0,0,0,0,0,0,0],"sum_hessian":[2.002E3,1.571E3,4.31E2,1.43E3,1.41E2,4.13E2,1.8E1,1.07E3,3.6E2,6.9E1,7.2E1,2.78E2,1.35E2,1.6E1,2E0,7.09E2,3.61E2,3.25E2,3.5E1,4.1E1,2.8E1,6.8E1,4E0,2.66E2,1.2E1,1.07E2,2.8E1,1.4E1,2E0,5.89E2,1.2E2,8.6E1,2.75E2,3.01E2,2.4E1,2.5E1,1E1,3.1E1,1E1,2.3E1,5E0,6.2E1,6E0,2.34E2,3.2E1,3E0,9E0,1E2,7E0,1.5E1,1.3E1,9E0,5E0,5.76E2,1.3E1,4.7E1,7.3E1,8.3E1,3E0,2.73E2,2E0,3E2,1E0,6E0,1.8E1,1E1,1.5E1,8E0,2E0,9E0,2.2E1,4E0,6E0,1.4E1,9E0,4.1E1,2.1E1,2E0,4E0,2.12E2,2.2E1,1.5E1,1.7E1,2E0,1E0,5E0,4E0,8.6E1,1.4E1,6E0,1E0,1.2E1,3E0,8E0,5E0,3E0,6E0,2E0,3E0],"tree_param":{"num_deleted":"0","num_feature":"27","num_nodes":"99","size_leaf_vector":"1"}},{"base_weights":[-5.869862E-4,-2.7515637E-2,9.740474E-2,-4.364969E-2,1.3526846E-1,1.2226213E-1,-4.4935122E-1,-7.348955E-2,4.4998895E-2,2.0720536E-1,6.443489E-2,1.3962682E-1,-3.18411E-1,-2.4692838E-1,-1.4466304E-1,-1.1844446E-1,1.48846945E-2,7.407125E-2,-2.1951738E-1,3.2011575E-1,3.6534935E-2,9.2262425E-2,-3.3247203E-1,2.0193084E-1,1.3500483E-2,-3.6954105E-1,2.6332855E-3,-4.8600134E-2,-1.15626015E-1,-8.672879E-2,-2.4927513E-1,-1.8196711E-1,7.688188E-2,7.982804E-2,-8.984428E-2,-3.403504E-1,8.604405E-2,2.3099953E-1,5.502615E-1,-2.7450701E-2,2.863883E-2,5.9228268E-2,3.763895E-1,-1.8669253E-2,-4.5779504E-2,1.7600729E-1,4.6929348E-1,4.6812706E-2,-5.128546E-1,-1.3384454E-1,-5.2958286E-1,-2.4789962E-1,2.916657E-1,-7.5688586E-3,-5.2214213E-2,-1.7953262E-2,-4.2171042E-2,-1.3781062E-2,-1.0637615E-1,9.010284E-3,-1.15626015E-1,5.843123E-3,3.3425253E-2,6.7550485E-4,-5.577135E-2,6.6343945E-4,2.9559169E-2,5.595398E-4,3.1895787E-2,7.062908E-2,3.602032E-2,1.0351584E-3,-9.160468E-3,-1.2240852E-3,1.9297713E-2,5.85962E-2,1.7536812E-2,1.5795203E-2,6.319059E-2,1.6225142E-2,5.934837E-2,9.642031E-3,-3.267116E-2,-7.162073E-2,4.5530725E-2,2.2372235E-2,-4.579503E-2,-2.2037555E-2,-6.7103215E-2,-3.1859018E-2,2.3241679E-3,5.221526E-4,4.3358244E-2],"categories":[],"categories_nodes":[],"categories_segments":[],"categories_sizes":[],"default_left":[0,0,0,0,0,0,0,0,0,0,0,0,0,0,0,0,0,0,0,0,0,0,0,0,0,0,0,0,0,0,0,0,0,0,0,0,0,0,0,0,0,0,0,0,0,0,0,0,0,0,0,0,0,0,0,0,0,0,0,0,0,0,0,0,0,0,0,0,0,0,0,0,0,0,0,0,0,0,0,0,0,0,0,0,0,0,0,0,0,0,0,0,0],"id":2,"left_children":[1,3,5,7,9,11,13,15,17,19,21,23,25,27,-1,29,31,33,35,37,39,41,43,45,47,49,-1,51,-1,53,55,57,59,61,-1,63,65,67,69,71,-1,73,75,-1,-1,77,79,81,83,85,87,89,91,-1,-1,-1,-1,-1,-1,-1,-1,-1,-1,-1,-1,-1,-1,-1,-1,-1,-1,-1,-1,-1,-1,-1,-1,-1,-1,-1,-1,-1,-1,-1,-1,-1,-1,-1,-1,-1,-1,-1,-1],"loss_changes":[5.2881665E0,4.1345534E0,5.9262185E0,3.7886753E0,7.102163E-1,3.2124486E0,3.4783552E0,4.2566924E0,2.7923896E0,1.3372369E0,8.369553E-1,3.1326876E0,2.9175925E-1,3.0096908E0,0E0,2.9244423E0,4.431931E0,1.8968511E0,1.3584739E0,7.342982E-1,4.7148535E-1,6.2533414E-1,5.8807135E-3,1.7679749E0,2.3560376E0,4.5721638E-1,0E0,1.089526E0,0E0,2.7149205E0,1.5838871E0,3.2409165E0,4.6039004E0,1.7497284E0,0E0,1.9654131E0,1.8108007E-1,6.3265276E-1,7.179308E-2,5.915226E-2,0E0,6.045737E-1,1.9214076E-1,0E0,0E0,1.916873E0,7.807336E-1,2.3662367E0,1.9011209E0,9.136801E-1,2.0201802E-1,1.9907582E-1,2.4164331E-1,0E0,0E0,0E0,0E0,0E0,0E0,0E0,0E0,0E0,0E0,0E0,0E0,0E0,0E0,0E0,0E0,0E0,0E0,0E0,0E0,0E0,0E0,0E0,0E0,0E0,0E0,0E0,0E0,0E0,0E0,0E0,0E0,0E0,0E0,0E0,0E0,0E0,0E0,0E0,0E0],"parents":[2147483647,0,0,1,1,2,2,3,3,4,4,5,5,6,6,7,7,8,8,9,9,10,10,11,11,12,12,13,13,15,15,16,16,17,17,18,18,19,19,20,20,21,21,22,22,23,23,24,24,25,25,27,27,29,29,30,30,31,31,32,32,33,33,35,35,36,36,37,37,38,38,39,39,41,41,42,42,45,45,46,46,47,47,48,48,49,49,50,50,51,51,52,52],"right_children":[2,4,6,8,10,12,14,16,18,20,22,24,26,28,-1,30,32,34,36,38,40,42,44,46,48,50,-1,52,-1,54,56,58,60,62,-1,64,66,68,70,72,-1,74,76,-1,-1,78,80,82,84,86,88,90,92,-1,-1,-1,-1,-1,-1,-1,-1,-1,-1,-1,-1,-1,-1,-1,-1,-1,-1,-1,-1,-1,-1,-1,-1,-1,-1,-1,-1,-1,-1,-1,-1,-1,-1,-1,-1,-1,-1,-1,-1],"split_conditions":[1E0,3E0,3E0,1E0,1E0,1E0,1E0,1E0,1E0,1E0,1E0,1E0,1E0,1E0,-1.4466304E-1,1E0,2E0,1E0,1E0,1E0,1E0,1E0,1E0,1E0,1E0,2E0,2.6332855E-3,1E0,-1.15626015E-1,1E0,1E0,1E0,1E0,1E0,-8.984428E-2,2E0,1E0,1E0,1E0,1E0,2.863883E-2,1E0,1E0,-1.8669253E-2,-4.5779504E-2,1E0,2E0,1E0,1E0,1E0,1E0,1E0,1E0,-7.5688586E-3,-5.2214213E-2,-1.7953262E-2,-4.2171042E-2,-1.3781062E-2,-1.0637615E-1,9.010284E-3,-1.15626015E-1,5.843123E-3,3.3425253E-2,6.7550485E-4,-5.577135E-2,6.6343945E-4,2.9559169E-2,5.595398E-4,3.1895787E-2,7.062908E-2,3.602032E-2,1.0351584E-3,-9.160468E-3,-1.2240852E-3,1.9297713E-2,5.85962E-2,1.7536812E-2,1.5795203E-2,6.319059E-2,1.6225142E-2,5.934837E-2,9.642031E-3,-3.267116E-2,-7.162073E-2,4.5530725E-2,2.2372235E-2,-4.579503E-2,-2.2037555E-2,-6.7103215E-2,-3.1859018E-2,2.3241679E-3,5.221526E-4,4.3358244E-2],"split_indices":[25,0,0,23,5,15,16,26,7,3,13,1,5,14,0,13,0,18,3,13,24,2,24,7,7,0,0,1,0,21,2,16,15,8,0,0,2,6,26,22,0,6,3,0,0,12,0,13,3,1,6,8,6,0,0,0,0,0,0,0,0,0,0,0,0,0,0,0,0,0,0,0,0,0,0,0,0,0,0,0,0,0,0,0,0,0,0,0,0,0,0,0,0],"split_type":[0,0,0,0,0,0,0,0,0,0,0,0,0,0,0,0,0,0,0,0,0,0,0,0,0,0,0,0,0,0,0,0,0,0,0,0,0,0,0,0,0,0,0,0,0,0,0,0,0,0,0,0,0,0,0,0,0,0,0,0,0,0,0,0,0,0,0,0,0,0,0,0,0,0,0,0,0,0,0,0,0,0,0,0,0,0,0,0,0,0,0,0,0],"sum_hessian":[2.002E3,1.571E3,4.31E2,1.43E3,1.41E2,4.13E2,1.8E1,1.07E3,3.6E2,6.9E1,7.2E1,3.98E2,1.5E1,1.6E1,2E0,7.09E2,3.61E2,3.25E2,3.5E1,4.1E1,2.8E1,6.8E1,4E0,2.66E2,1.32E2,1.3E1,2E0,1.4E1,2E0,5.72E2,1.37E2,8.6E1,2.75E2,3.24E2,1E0,2.5E1,1E1,3.1E1,1E1,2.3E1,5E0,6.2E1,6E0,3E0,1E0,2.44E2,2.2E1,1.25E2,7E0,6E0,7E0,9E0,5E0,5.59E2,1.3E1,9.9E1,3.8E1,8.3E1,3E0,2.73E2,2E0,3E2,2.4E1,1E1,1.5E1,8E0,2E0,9E0,2.2E1,4E0,6E0,1.5E1,8E0,4.1E1,2.1E1,2E0,4E0,2.36E2,8E0,7E0,1.5E1,1.11E2,1.4E1,6E0,1E0,3E0,3E0,3E0,4E0,7E0,2E0,2E0,3E0],"tree_param":{"num_deleted":"0","num_feature":"27","num_nodes":"93","size_leaf_vector":"1"}},{"base_weights":[-7.695492E-4,-2.4912162E-2,8.708452E-2,-3.957974E-2,1.2307529E-1,1.10025026E-1,-4.1736054E-1,-6.646432E-2,4.028997E-2,1.8876512E-1,5.839907E-2,1.2592834E-1,-2.9344058E-1,-2.2819325E-1,-1.3501883E-1,-9.241911E-2,6.426629E-2,6.650894E-2,-1.9825657E-1,2.914163E-1,3.358879E-2,8.440152E-2,-3.1211454E-1,1.823166E-1,1.1781043E-2,-3.4062725E-1,2.45773E-3,-4.27838E-2,-1.0791761E-1,-1.3285418E-1,-1.3897452E-2,-1.24778196E-1,1.6389441E-1,7.196602E-2,-8.535206E-2,-3.084344E-1,8.0187105E-2,2.0891392E-1,5.0493073E-1,-2.5044203E-2,2.625226E-2,5.3592335E-2,3.496268E-1,-1.726905E-2,-4.349053E-2,2.1179466E-1,-3.3127654E-2,4.1948587E-2,-4.648304E-1,-1.2380624E-1,-4.8776722E-1,-2.260632E-1,2.698125E-1,-1.24354875E-2,-4.736575E-2,-2.4847455E-2,5.965631E-3,-2.3972312E-2,2.5136411E-2,3.9679598E-2,-5.6421673E-3,5.260748E-3,3.0216424E-2,6.1410124E-4,-5.0542783E-2,6.0445996E-4,2.758856E-2,5.091882E-4,2.8844899E-2,6.4978756E-2,3.293287E-2,1.269881E-3,-7.91543E-3,-1.1045955E-3,1.745567E-2,5.468979E-2,1.613388E-2,2.3259204E-2,-5.1851063E-3,-1.3093658E-2,2.0492654E-2,8.686428E-3,-2.9621845E-2,-6.548181E-2,4.3254185E-2,2.0694315E-2,-4.2360406E-2,-2.0384742E-2,-6.1734963E-2,-3.9814867E-2,-9.543392E-3,4.8734347E-4,4.0106367E-2],"categories":[],"categories_nodes":[],"categories_segments":[],"categories_sizes":[],"default_left":[0,0,0,0,0,0,0,0,0,0,0,0,0,0,0,0,0,0,0,0,0,0,0,0,0,0,0,0,0,0,0,0,0,0,0,0,0,0,0,0,0,0,0,0,0,0,0,0,0,0,0,0,0,0,0,0,0,0,0,0,0,0,0,0,0,0,0,0,0,0,0,0,0,0,0,0,0,0,0,0,0,0,0,0,0,0,0,0,0,0,0,0,0],"id":3,"left_children":[1,3,5,7,9,11,13,15,17,19,21,23,25,27,-1,29,31,33,35,37,39,41,43,45,47,49,-1,51,-1,53,55,57,59,61,-1,63,65,67,69,71,-1,73,75,-1,-1,77,79,81,83,85,87,89,91,-1,-1,-1,-1,-1,-1,-1,-1,-1,-1,-1,-1,-1,-1,-1,-1,-1,-1,-1,-1,-1,-1,-1,-1,-1,-1,-1,-1,-1,-1,-1,-1,-1,-1,-1,-1,-1,-1,-1,-1],"loss_changes":[4.2505856E0,3.4170823E0,5.045122E0,3.0754125E0,5.9227324E-1,2.6933599E0,3.0446448E0,3.639934E0,2.2710404E0,1.1052439E0,7.2964394E-1,2.5660415E0,2.484709E-1,2.6360931E0,0E0,2.8366294E0,3.3729289E0,1.6981636E0,1.129152E0,6.34362E-1,3.9584383E-1,5.450876E-1,1.0495901E-2,1.7027016E0,1.9317992E0,3.8625395E-1,0E0,9.2038167E-1,0E0,1.6500874E0,5.277302E0,2.740868E0,6.0258875E0,1.432402E0,0E0,1.6143055E0,1.579377E-1,5.172832E-1,6.581473E-2,5.001984E-2,0E0,4.945207E-1,1.7177057E-1,0E0,0E0,1.3005972E0,7.951987E-1,1.9395456E0,1.6471537E0,7.817676E-1,1.6848302E-1,1.8679708E-1,2.066868E-1,0E0,0E0,0E0,0E0,0E0,0E0,0E0,0E0,0E0,0E0,0E0,0E0,0E0,0E0,0E0,0E0,0E0,0E0,0E0,0E0,0E0,0E0,0E0,0E0,0E0,0E0,0E0,0E0,0E0,0E0,0E0,0E0,0E0,0E0,0E0,0E0,0E0,0E0,0E0,0E0],"parents":[2147483647,0,0,1,1,2,2,3,3,4,4,5,5,6,6,7,7,8,8,9,9,10,10,11,11,12,12,13,13,15,15,16,16,17,17,18,18,19,19,20,20,21,21,22,22,23,23,24,24,25,25,27,27,29,29,30,30,31,31,32,32,33,33,35,35,36,36,37,37,38,38,39,39,41,41,42,42,45,45,46,46,47,47,48,48,49,49,50,50,51,51,52,52],"right_children":[2,4,6,8,10,12,14,16,18,20,22,24,26,28,-1,30,32,34,36,38,40,42,44,46,48,50,-1,52,-1,54,56,58,60,62,-1,64,66,68,70,72,-1,74,76,-1,-1,78,80,82,84,86,88,90,92,-1,-1,-1,-1,-1,-1,-1,-1,-1,-1,-1,-1,-1,-1,-1,-1,-1,-1,-1,-1,-1,-1,-1,-1,-1,-1,-1,-1,-1,-1,-1,-1,-1,-1,-1,-1,-1,-1,-1,-1],"split_conditions":[1E0,3E0,3E0,1E0,1E0,1E0,1E0,1E0,1E0,1E0,1E0,1E0,1E0,1E0,-1.3501883E-1,1E0,2E0,1E0,1E0,1E0,1E0,1E0,1E0,1E0,1E0,2E0,2.45773E-3,1E0,-1.0791761E-1,1E0,2E0,1E0,1E0,1E0,-8.535206E-2,2E0,1E0,1E0,1E0,1E0,2.625226E-2,1E0,1E0,-1.726905E-2,-4.349053E-2,1E0,1E0,1E0,1E0,1E0,1E0,1E0,1E0,-1.24354875E-2,-4.736575E-2,-2.4847455E-2,5.965631E-3,-2.3972312E-2,2.5136411E-2,3.9679598E-2,-5.6421673E-3,5.260748E-3,3.0216424E-2,6.1410124E-4,-5.0542783E-2,6.0445996E-4,2.758856E-2,5.091882E-4,2.8844899E-2,6.4978756E-2,3.293287E-2,1.269881E-3,-7.91543E-3,-1.1045955E-3,1.745567E-2,5.468979E-2,1.613388E-2,2.3259204E-2,-5.1851063E-3,-1.3093658E-2,2.0492654E-2,8.686428E-3,-2.9621845E-2,-6.548181E-2,4.3254185E-2,2.0694315E-2,-4.2360406E-2,-2.0384742E-2,-6.1734963E-2,-3.9814867E-2,-9.543392E-3,4.8734347E-4,4.0106367E-2],"split_indices":[25,0,0,23,5,15,16,17,7,3,13,1,5,14,0,26,0,18,3,13,24,2,24,14,7,0,0,1,0,21,0,26,4,8,0,0,2,6,26,2,0,6,3,0,0,8,3,13,3,1,6,6,6,0,0,0,0,0,0,0,0,0,0,0,0,0,0,0,0,0,0,0,0,0,0,0,0,0,0,0,0,0,0,0,0,0,0,0,0,0,0,0,0],"split_type":[0,0,0,0,0,0,0,0,0,0,0,0,0,0,0,0,0,0,0,0,0,0,0,0,0,0,0,0,0,0,0,0,0,0,0,0,0,0,0,0,0,0,0,0,0,0,0,0,0,0,0,0,0,0,0,0,0,0,0,0,0,0,0,0,0,0,0,0,0,0,0,0,0,0,0,0,0,0,0,0,0,0,0,0,0,0,0,0,0,0,0,0,0],"sum_hessian":[2.002E3,1.571E3,4.31E2,1.43E3,1.41E2,4.13E2,1.8E1,1.07E3,3.6E2,6.9E1,7.2E1,3.98E2,1.5E1,1.6E1,2E0,8.93E2,1.77E2,3.25E2,3.5E1,4.1E1,2.8E1,6.8E1,4E0,2.66E2,1.32E2,1.3E1,2E0,1.4E1,2E0,5.89E2,3.04E2,6.1E1,1.16E2,3.24E2,1E0,2.5E1,1E1,3.1E1,1E1,2.3E1,5E0,6.2E1,6E0,3E0,1E0,2.34E2,3.2E1,1.25E2,7E0,6E0,7E0,9E0,5E0,5.76E2,1.3E1,7.2E1,2.32E2,4.7E1,1.4E1,5.6E1,6E1,3E2,2.4E1,1E1,1.5E1,8E0,2E0,9E0,2.2E1,4E0,6E0,1.4E1,9E0,4.1E1,2.1E1,2E0,4E0,2.17E2,1.7E1,2.3E1,9E0,1.11E2,1.4E1,6E0,1E0,3E0,3E0,3E0,4E0,3E0,6E0,2E0,3E0],"tree_param":{"num_deleted":"0","num_feature":"27","num_nodes":"93","size_leaf_vector":"1"}},{"base_weights":[-8.486755E-4,-2.2383992E-2,7.751791E-2,-3.570227E-2,1.11988135E-1,9.8735034E-2,-3.8887188E-1,-5.9858542E-2,3.6062457E-2,1.7198685E-1,5.292104E-2,1.1329117E-1,-2.7042955E-1,-2.1223755E-1,-1.2601757E-1,-8.326526E-2,5.8037348E-2,5.970489E-2,-1.7903465E-1,2.6530483E-1,3.0906053E-2,7.72248E-2,-2.9305497E-1,1.4070334E-1,-9.009165E-2,-3.139778E-1,2.2938887E-3,-3.908968E-2,-1.0072311E-1,-1.1967017E-1,-1.2569662E-2,-1.1228164E-1,1.4779581E-1,6.487841E-2,-8.108447E-2,-2.795113E-1,7.473148E-2,1.8893987E-1,4.6333885E-1,-2.2816619E-2,2.4064573E-2,4.849267E-2,3.2478184E-1,-1.5973866E-2,-4.131601E-2,1.9069214E-1,3.9956972E-2,-1.5708983E-1,4.132209E-2,-1.1452079E-1,-4.4925547E-1,-2.0839266E-1,2.4959691E-1,-9.114558E-3,-2.1243807E-2,-2.2396743E-2,5.3716204E-3,-2.1625027E-2,2.279034E-2,3.5781257E-2,-5.0872224E-3,7.755662E-3,-2.4536442E-2,5.58268E-4,-4.5804393E-2,5.507363E-4,2.5749335E-2,4.633546E-4,2.608583E-2,5.9780467E-2,3.011006E-2,1.163511E-3,-8.152896E-3,-9.967663E-4,1.5789455E-2,5.1043797E-2,1.4843178E-2,2.1739682E-2,-6.499587E-4,-1.3054267E-2,1.4309923E-2,-7.6001784E-4,-5.3827453E-2,-5.193282E-2,3.182037E-2,1.9142246E-2,-3.9183386E-2,-1.8855883E-2,-5.679617E-2,-3.6828745E-2,-8.725385E-3,4.5485498E-4,3.7098397E-2],"categories":[],"categories_nodes":[],"categories_segments":[],"categories_sizes":[],"default_left":[0,0,0,0,0,0,0,0,0,0,0,0,0,0,0,0,0,0,0,0,0,0,0,0,0,0,0,0,0,0,0,0,0,0,0,0,0,0,0,0,0,0,0,0,0,0,0,0,0,0,0,0,0,0,0,0,0,0,0,0,0,0,0,0,0,0,0,0,0,0,0,0,0,0,0,0,0,0,0,0,0,0,0,0,0,0,0,0,0,0,0,0,0],"id":4,"left_children":[1,3,5,7,9,11,13,15,17,19,21,23,25,27,-1,29,31,33,35,37,39,41,43,45,47,49,-1,51,-1,53,55,57,59,61,-1,63,65,67,69,71,-1,73,75,-1,-1,77,79,81,83,85,87,89,91,-1,-1,-1,-1,-1,-1,-1,-1,-1,-1,-1,-1,-1,-1,-1,-1,-1,-1,-1,-1,-1,-1,-1,-1,-1,-1,-1,-1,-1,-1,-1,-1,-1,-1,-1,-1,-1,-1,-1,-1],"loss_changes":[3.3820965E0,2.8172584E0,4.3132286E0,2.4828947E0,4.9413908E-1,2.2553115E0,2.6566844E0,2.9603174E0,1.8465254E0,9.1337705E-1,6.3645273E-1,2.237167E0,2.116133E-1,2.300702E0,0E0,2.299354E0,2.7377822E0,1.520847E0,9.388008E-1,5.4761696E-1,3.322562E-1,4.7503638E-1,1.4062196E-2,1.7651191E0,4.2910644E-1,3.2630002E-1,0E0,7.851467E-1,0E0,1.5418749E0,4.2858996E0,2.2421358E0,4.8998656E0,1.2973595E0,0E0,1.3259203E0,1.3774869E-1,4.2295194E-1,5.9971094E-2,4.949439E-2,0E0,4.0450105E-1,1.5341812E-1,0E0,0E0,1.2389097E0,2.0937953E0,1.8193705E0,2.8042262E0,6.6890013E-1,1.4047635E-1,1.6156015E-1,1.7678669E-1,0E0,0E0,0E0,0E0,0E0,0E0,0E0,0E0,0E0,0E0,0E0,0E0,0E0,0E0,0E0,0E0,0E0,0E0,0E0,0E0,0E0,0E0,0E0,0E0,0E0,0E0,0E0,0E0,0E0,0E0,0E0,0E0,0E0,0E0,0E0,0E0,0E0,0E0,0E0,0E0],"parents":[2147483647,0,0,1,1,2,2,3,3,4,4,5,5,6,6,7,7,8,8,9,9,10,10,11,11,12,12,13,13,15,15,16,16,17,17,18,18,19,19,20,20,21,21,22,22,23,23,24,24,25,25,27,27,29,29,30,30,31,31,32,32,33,33,35,35,36,36,37,37,38,38,39,39,41,41,42,42,45,45,46,46,47,47,48,48,49,49,50,50,51,51,52,52],"right_children":[2,4,6,8,10,12,14,16,18,20,22,24,26,28,-1,30,32,34,36,38,40,42,44,46,48,50,-1,52,-1,54,56,58,60,62,-1,64,66,68,70,72,-1,74,76,-1,-1,78,80,82,84,86,88,90,92,-1,-1,-1,-1,-1,-1,-1,-1,-1,-1,-1,-1,-1,-1,-1,-1,-1,-1,-1,-1,-1,-1,-1,-1,-1,-1,-1,-1,-1,-1,-1,-1,-1,-1,-1,-1,-1,-1,-1,-1],"split_conditions":[1E0,3E0,3E0,1E0,1E0,1E0,1E0,1E0,1E0,1E0,1E0,1E0,1E0,1E0,-1.2601757E-1,1E0,2E0,1E0,1E0,1E0,1E0,1E0,1E0,1E0,1E0,2E0,2.2938887E-3,1E0,-1.0072311E-1,1E0,2E0,1E0,1E0,1E0,-8.108447E-2,2E0,1E0,1E0,1E0,1E0,2.4064573E-2,1E0,1E0,-1.5973866E-2,-4.131601E-2,1E0,1E0,1E0,1E0,1E0,1E0,1E0,1E0,-9.114558E-3,-2.1243807E-2,-2.2396743E-2,5.3716204E-3,-2.1625027E-2,2.279034E-2,3.5781257E-2,-5.0872224E-3,7.755662E-3,-2.4536442E-2,5.58268E-4,-4.5804393E-2,5.507363E-4,2.5749335E-2,4.633546E-4,2.608583E-2,5.9780467E-2,3.011006E-2,1.163511E-3,-8.152896E-3,-9.967663E-4,1.5789455E-2,5.1043797E-2,1.4843178E-2,2.1739682E-2,-6.499587E-4,-1.3054267E-2,1.4309923E-2,-7.6001784E-4,-5.3827453E-2,-5.193282E-2,3.182037E-2,1.9142246E-2,-3.9183386E-2,-1.8855883E-2,-5.679617E-2,-3.6828745E-2,-8.725385E-3,4.5485498E-4,3.7098397E-2],"split_indices":[25,0,0,23,5,15,16,17,7,3,13,14,5,14,0,26,0,18,3,13,24,2,24,1,3,0,0,1,0,13,0,26,4,15,0,0,2,6,26,22,0,6,3,0,0,20,4,2,2,1,6,6,6,0,0,0,0,0,0,0,0,0,0,0,0,0,0,0,0,0,0,0,0,0,0,0,0,0,0,0,0,0,0,0,0,0,0,0,0,0,0,0,0],"split_type":[0,0,0,0,0,0,0,0,0,0,0,0,0,0,0,0,0,0,0,0,0,0,0,0,0,0,0,0,0,0,0,0,0,0,0,0,0,0,0,0,0,0,0,0,0,0,0,0,0,0,0,0,0,0,0,0,0,0,0,0,0,0,0,0,0,0,0,0,0,0,0,0,0,0,0,0,0,0,0,0,0,0,0,0,0,0,0,0,0,0,0,0,0],"sum_hessian":[2.002E3,1.571E3,4.31E2,1.43E3,1.41E2,4.13E2,1.8E1,1.07E3,3.6E2,6.9E1,7.2E1,3.98E2,1.5E1,1.6E1,2E0,8.93E2,1.77E2,3.25E2,3.5E1,4.1E1,2.8E1,6.8E1,4E0,3.51E2,4.7E1,1.3E1,2E0,1.4E1,2E0,5.89E2,3.04E2,6.1E1,1.16E2,3.24E2,1E0,2.5E1,1E1,3.1E1,1E1,2.3E1,5E0,6.2E1,6E0,3E0,1E0,2.34E2,1.17E2,3.1E1,1.6E1,6E0,7E0,9E0,5E0,4.52E2,1.37E2,7.2E1,2.32E2,4.7E1,1.4E1,5.6E1,6E1,3.12E2,1.2E1,1E1,1.5E1,8E0,2E0,9E0,2.2E1,4E0,6E0,1.5E1,8E0,4.1E1,2.1E1,2E0,4E0,2.06E2,2.8E1,4.4E1,7.3E1,2.3E1,8E0,5E0,1.1E1,3E0,3E0,3E0,4E0,3E0,6E0,2E0,3E0],"tree_param":{"num_deleted":"0","num_feature":"27","num_nodes":"93","size_leaf_vector":"1"}},{"base_weights":[-9.414964E-4,-2.0129984E-2,6.888546E-2,-3.2224547E-2,1.01894304E-1,8.850959E-2,-3.623395E-1,-5.388719E-2,3.213255E-2,1.10960156E-1,-2.3861778E-1,1.0183096E-1,-2.4922405E-1,-1.9740933E-1,-1.1761641E-1,-7.499175E-2,5.2412607E-2,5.3434107E-2,-1.6165745E-1,1.268329E-1,-5.2639704E-2,-6.565492E-2,5.0758816E-2,1.2669662E-1,-8.263869E-2,-2.8941527E-1,2.140967E-3,-3.57141E-2,-9.400824E-2,-1.0775465E-1,-1.1368464E-2,-1.0103469E-1,1.332786E-1,5.8338843E-2,-7.703024E-2,-2.5330037E-1,6.9649264E-2,9.7657844E-2,3.553417E-1,-2.2063088E-1,1.8012182E-1,1.7171285E-1,3.597198E-2,-1.4308664E-1,3.6006816E-2,-1.0593169E-1,-4.137865E-1,-1.921088E-1,2.3089607E-1,-1.5208217E-2,-5.051721E-3,-2.0187743E-2,4.836769E-3,-1.9507576E-2,2.0663233E-2,3.2265894E-2,-4.5868247E-3,4.0921415E-3,2.6571114E-2,5.075065E-4,-4.1510224E-2,5.0178106E-4,2.403272E-2,1.723575E-2,3.660566E-3,4.291997E-2,1.3655739E-2,3.084898E-4,-2.53031E-2,4.1131975E-4,2.6709784E-2,1.565237E-2,5.3573776E-2,6.8508214E-3,-4.199648E-2,-6.87177E-4,-4.9042784E-2,-4.7605086E-2,2.8903509E-2,1.7706586E-2,-3.624463E-2,-1.7441696E-2,-5.2252483E-2,-2.5283782E-2,3.3871492E-3,4.2452812E-4,3.4316014E-2],"categories":[],"categories_nodes":[],"categories_segments":[],"categories_sizes":[],"default_left":[0,0,0,0,0,0,0,0,0,0,0,0,0,0,0,0,0,0,0,0,0,0,0,0,0,0,0,0,0,0,0,0,0,0,0,0,0,0,0,0,0,0,0,0,0,0,0,0,0,0,0,0,0,0,0,0,0,0,0,0,0,0,0,0,0,0,0,0,0,0,0,0,0,0,0,0,0,0,0,0,0,0,0,0,0,0,0],"id":5,"left_children":[1,3,5,7,9,11,13,15,17,19,21,23,25,27,-1,29,31,33,35,37,39,-1,-1,41,43,45,-1,47,-1,49,51,53,55,57,-1,59,61,63,65,67,69,71,73,75,77,79,81,83,85,-1,-1,-1,-1,-1,-1,-1,-1,-1,-1,-1,-1,-1,-1,-1,-1,-1,-1,-1,-1,-1,-1,-1,-1,-1,-1,-1,-1,-1,-1,-1,-1,-1,-1,-1,-1,-1,-1],"loss_changes":[2.6851537E0,2.323289E0,3.6878333E0,1.9967526E0,4.6483576E-1,1.8879964E0,2.318074E0,2.4066231E0,1.4988563E0,3.6762857E-1,1.580708E0,1.8406672E0,1.802299E-1,2.0078995E0,0E0,1.8623028E0,2.2222085E0,1.362047E0,7.8075665E-1,8.119762E-1,5.4806495E-1,0E0,0E0,1.4314194E0,3.494023E-1,2.75648E-1,0E0,6.6980344E-1,0E0,1.4892607E0,3.4807472E0,1.8341753E0,3.9842458E0,1.1629916E0,0E0,1.0890528E0,1.2013688E-1,5.135964E-1,1.6761518E-1,5.8767885E-2,9.075254E-2,1.2155123E0,1.7792381E0,1.5106469E0,2.3402014E0,5.723279E-1,1.1709201E-1,1.4579958E-1,1.5121165E-1,0E0,0E0,0E0,0E0,0E0,0E0,0E0,0E0,0E0,0E0,0E0,0E0,0E0,0E0,0E0,0E0,0E0,0E0,0E0,0E0,0E0,0E0,0E0,0E0,0E0,0E0,0E0,0E0,0E0,0E0,0E0,0E0,0E0,0E0,0E0,0E0,0E0,0E0],"parents":[2147483647,0,0,1,1,2,2,3,3,4,4,5,5,6,6,7,7,8,8,9,9,10,10,11,11,12,12,13,13,15,15,16,16,17,17,18,18,19,19,20,20,23,23,24,24,25,25,27,27,29,29,30,30,31,31,32,32,33,33,35,35,36,36,37,37,38,38,39,39,40,40,41,41,42,42,43,43,44,44,45,45,46,46,47,47,48,48],"right_children":[2,4,6,8,10,12,14,16,18,20,22,24,26,28,-1,30,32,34,36,38,40,-1,-1,42,44,46,-1,48,-1,50,52,54,56,58,-1,60,62,64,66,68,70,72,74,76,78,80,82,84,86,-1,-1,-1,-1,-1,-1,-1,-1,-1,-1,-1,-1,-1,-1,-1,-1,-1,-1,-1,-1,-1,-1,-1,-1,-1,-1,-1,-1,-1,-1,-1,-1,-1,-1,-1,-1,-1,-1],"split_conditions":[1E0,3E0,3E0,1E0,1E0,1E0,1E0,1E0,1E0,1E0,1E0,1E0,1E0,1E0,-1.1761641E-1,1E0,2E0,1E0,1E0,1E0,1E0,-6.565492E-2,5.0758816E-2,1E0,1E0,2E0,2.140967E-3,1E0,-9.400824E-2,1E0,2E0,1E0,1E0,1E0,-7.703024E-2,2E0,1E0,1E0,1E0,1E0,1E0,1E0,1E0,1E0,1E0,1E0,1E0,1E0,1E0,-1.5208217E-2,-5.051721E-3,-2.0187743E-2,4.836769E-3,-1.9507576E-2,2.0663233E-2,3.2265894E-2,-4.5868247E-3,4.0921415E-3,2.6571114E-2,5.075065E-4,-4.1510224E-2,5.0178106E-4,2.403272E-2,1.723575E-2,3.660566E-3,4.291997E-2,1.3655739E-2,3.084898E-4,-2.53031E-2,4.1131975E-4,2.6709784E-2,1.565237E-2,5.3573776E-2,6.8508214E-3,-4.199648E-2,-6.87177E-4,-4.9042784E-2,-4.7605086E-2,2.8903509E-2,1.7706586E-2,-3.624463E-2,-1.7441696E-2,-5.2252483E-2,-2.5283782E-2,3.3871492E-3,4.2452812E-4,3.4316014E-2],"split_indices":[25,0,0,23,11,15,16,17,7,10,23,14,5,14,0,26,0,18,3,2,26,0,0,1,3,0,0,1,0,1,0,26,4,8,0,0,2,5,3,1,1,12,7,2,2,1,6,8,6,0,0,0,0,0,0,0,0,0,0,0,0,0,0,0,0,0,0,0,0,0,0,0,0,0,0,0,0,0,0,0,0,0,0,0,0,0,0],"split_type":[0,0,0,0,0,0,0,0,0,0,0,0,0,0,0,0,0,0,0,0,0,0,0,0,0,0,0,0,0,0,0,0,0,0,0,0,0,0,0,0,0,0,0,0,0,0,0,0,0,0,0,0,0,0,0,0,0,0,0,0,0,0,0,0,0,0,0,0,0,0,0,0,0,0,0,0,0,0,0,0,0,0,0,0,0,0,0],"sum_hessian":[2.002E3,1.571E3,4.31E2,1.43E3,1.41E2,4.13E2,1.8E1,1.07E3,3.6E2,1.38E2,3E0,3.98E2,1.5E1,1.6E1,2E0,8.93E2,1.77E2,3.25E2,3.5E1,1.26E2,1.2E1,2E0,1E0,3.51E2,4.7E1,1.3E1,2E0,1.4E1,2E0,5.89E2,3.04E2,6.1E1,1.16E2,3.24E2,1E0,2.5E1,1E1,1.13E2,1.3E1,7E0,5E0,2.34E2,1.17E2,3.1E1,1.6E1,6E0,7E0,9E0,5E0,3.31E2,2.58E2,7.2E1,2.32E2,4.7E1,1.4E1,5.6E1,6E1,3E2,2.4E1,1E1,1.5E1,8E0,2E0,5E1,6.3E1,9E0,4E0,1E0,6E0,2E0,3E0,2.26E2,8E0,1.1E2,7E0,2.3E1,8E0,5E0,1.1E1,3E0,3E0,3E0,4E0,7E0,2E0,2E0,3E0],"tree_param":{"num_deleted":"0","num_feature":"27","num_nodes":"87","size_leaf_vector":"1"}},{"base_weights":[-1.0091345E-3,-1.8120097E-2,6.1258096E-2,-2.9050723E-2,9.2160486E-2,7.936784E-2,-3.3656773E-1,-4.850475E-2,2.8745165E-2,1.00436755E-1,-2.1847999E-1,9.1561906E-2,-2.296823E-1,-1.8244278E-1,-1.09775305E-1,-6.753236E-2,4.7333404E-2,4.7948387E-2,-1.4594914E-1,1.1475958E-1,-4.7212087E-2,-6.1277915E-2,4.8220873E-2,2.9424286E-2,1.5324172E-1,-2.66776E-1,1.9982338E-3,-3.1286445E-2,-8.7741025E-2,-9.701355E-2,-1.0281765E-2,-9.091248E-2,1.2018735E-1,5.2599225E-2,-7.317873E-2,-1.8967131E-1,2.512461E-1,8.807532E-2,3.2384858E-1,-2.016921E-1,1.6662996E-1,5.674811E-2,-2.1932754E-1,2.230962E-2,2.1328853E-1,-9.7986735E-2,-3.8111958E-1,-1.7508757E-1,2.1359651E-1,-8.914589E-3,-4.143445E-2,-1.8196613E-2,4.3551885E-3,4.8284405E-3,-2.731412E-2,2.9095933E-2,-4.1356743E-3,6.4022862E-3,-2.2649288E-2,-1.090294E-2,-4.736228E-2,-8.1770895E-3,3.895087E-2,1.5545974E-2,3.300218E-3,3.905716E-2,1.2563285E-2,2.9306413E-4,-2.313426E-2,3.839016E-4,2.4706567E-2,8.938401E-3,-1.4124994E-2,1.3442907E-2,-5.209856E-2,5.583542E-3,-6.779935E-2,2.4014944E-2,-4.1319966E-2,1.6378606E-2,-3.3526283E-2,-1.6133565E-2,-4.8072282E-2,-3.2170303E-2,-6.6294805E-3,3.9621987E-4,3.1742312E-2],"categories":[],"categories_nodes":[],"categories_segments":[],"categories_sizes":[],"default_left":[0,0,0,0,0,0,0,0,0,0,0,0,0,0,0,0,0,0,0,0,0,0,0,0,0,0,0,0,0,0,0,0,0,0,0,0,0,0,0,0,0,0,0,0,0,0,0,0,0,0,0,0,0,0,0,0,0,0,0,0,0,0,0,0,0,0,0,0,0,0,0,0,0,0,0,0,0,0,0,0,0,0,0,0,0,0,0],"id":6,"left_children":[1,3,5,7,9,11,13,15,17,19,21,23,25,27,-1,29,31,33,35,37,39,-1,-1,41,43,45,-1,47,-1,49,51,53,55,57,-1,59,61,63,65,67,69,71,73,75,77,79,81,83,85,-1,-1,-1,-1,-1,-1,-1,-1,-1,-1,-1,-1,-1,-1,-1,-1,-1,-1,-1,-1,-1,-1,-1,-1,-1,-1,-1,-1,-1,-1,-1,-1,-1,-1,-1,-1,-1,-1],"loss_changes":[2.1352112E0,1.897622E0,3.1390665E0,1.6103575E0,3.870175E-1,1.581222E0,2.0287583E0,1.9562418E0,1.2180423E0,2.9936814E-1,1.4006113E0,1.5247128E0,1.5350646E-1,1.7583774E0,0E0,1.5079093E0,1.8036996E0,1.2207065E0,6.728388E-1,6.8005884E-1,4.630541E-1,0E0,0E0,1.3718166E0,1.5676532E0,2.3285502E-1,0E0,5.656147E-1,0E0,1.4360895E0,2.8268554E0,1.58586E0,3.2397356E0,1.0506809E0,0E0,7.040081E-1,2.1602568E-1,4.1793162E-1,1.3608909E-1,4.9215287E-2,7.761674E-2,1.1822195E0,2.2043061E0,1.5404623E0,2.4046717E0,4.8969835E-1,9.757173E-2,1.3817975E-1,1.29336E-1,0E0,0E0,0E0,0E0,0E0,0E0,0E0,0E0,0E0,0E0,0E0,0E0,0E0,0E0,0E0,0E0,0E0,0E0,0E0,0E0,0E0,0E0,0E0,0E0,0E0,0E0,0E0,0E0,0E0,0E0,0E0,0E0,0E0,0E0,0E0,0E0,0E0,0E0],"parents":[2147483647,0,0,1,1,2,2,3,3,4,4,5,5,6,6,7,7,8,8,9,9,10,10,11,11,12,12,13,13,15,15,16,16,17,17,18,18,19,19,20,20,23,23,24,24,25,25,27,27,29,29,30,30,31,31,32,32,33,33,35,35,36,36,37,37,38,38,39,39,40,40,41,41,42,42,43,43,44,44,45,45,46,46,47,47,48,48],"right_children":[2,4,6,8,10,12,14,16,18,20,22,24,26,28,-1,30,32,34,36,38,40,-1,-1,42,44,46,-1,48,-1,50,52,54,56,58,-1,60,62,64,66,68,70,72,74,76,78,80,82,84,86,-1,-1,-1,-1,-1,-1,-1,-1,-1,-1,-1,-1,-1,-1,-1,-1,-1,-1,-1,-1,-1,-1,-1,-1,-1,-1,-1,-1,-1,-1,-1,-1,-1,-1,-1,-1,-1,-1],"split_conditions":[1E0,3E0,3E0,1E0,1E0,1E0,1E0,1E0,1E0,1E0,1E0,1E0,1E0,1E0,-1.09775305E-1,1E0,2E0,1E0,1E0,1E0,1E0,-6.1277915E-2,4.8220873E-2,1E0,2E0,2E0,1.9982338E-3,1E0,-8.7741025E-2,1E0,2E0,1E0,1E0,1E0,-7.317873E-2,1E0,2E0,1E0,1E0,1E0,1E0,1E0,2E0,1E0,1E0,1E0,1E0,1E0,1E0,-8.914589E-3,-4.143445E-2,-1.8196613E-2,4.3551885E-3,4.8284405E-3,-2.731412E-2,2.9095933E-2,-4.1356743E-3,6.4022862E-3,-2.2649288E-2,-1.090294E-2,-4.736228E-2,-8.1770895E-3,3.895087E-2,1.5545974E-2,3.300218E-3,3.905716E-2,1.2563285E-2,2.9306413E-4,-2.313426E-2,3.839016E-4,2.4706567E-2,8.938401E-3,-1.4124994E-2,1.3442907E-2,-5.209856E-2,5.583542E-3,-6.779935E-2,2.4014944E-2,-4.1319966E-2,1.6378606E-2,-3.3526283E-2,-1.6133565E-2,-4.8072282E-2,-3.2170303E-2,-6.6294805E-3,3.9621987E-4,3.1742312E-2],"split_indices":[25,0,0,23,11,15,16,17,7,10,23,6,5,14,0,26,0,18,2,2,26,0,0,8,0,0,0,1,0,21,0,24,4,15,0,5,0,5,3,1,1,14,0,12,19,1,6,6,6,0,0,0,0,0,0,0,0,0,0,0,0,0,0,0,0,0,0,0,0,0,0,0,0,0,0,0,0,0,0,0,0,0,0,0,0,0,0],"split_type":[0,0,0,0,0,0,0,0,0,0,0,0,0,0,0,0,0,0,0,0,0,0,0,0,0,0,0,0,0,0,0,0,0,0,0,0,0,0,0,0,0,0,0,0,0,0,0,0,0,0,0,0,0,0,0,0,0,0,0,0,0,0,0,0,0,0,0,0,0,0,0,0,0,0,0,0,0,0,0,0,0,0,0,0,0,0,0],"sum_hessian":[2.002E3,1.571E3,4.31E2,1.43E3,1.41E2,4.13E2,1.8E1,1.07E3,3.6E2,1.38E2,3E0,3.98E2,1.5E1,1.6E1,2E0,8.93E2,1.77E2,3.25E2,3.5E1,1.26E2,1.2E1,2E0,1E0,1.99E2,1.99E2,1.3E1,2E0,1.4E1,2E0,5.89E2,3.04E2,6.1E1,1.16E2,3.24E2,1E0,3.2E1,3E0,1.13E2,1.3E1,7E0,5E0,1.8E2,1.9E1,6.3E1,1.36E2,6E0,7E0,9E0,5E0,5.76E2,1.3E1,7.2E1,2.32E2,3.5E1,2.6E1,5.6E1,6E1,3.12E2,1.2E1,2.6E1,6E0,1E0,2E0,5E1,6.3E1,9E0,4E0,1E0,6E0,2E0,3E0,1.55E2,2.5E1,9E0,1E1,6.1E1,2E0,1.31E2,5E0,3E0,3E0,3E0,4E0,3E0,6E0,2E0,3E0],"tree_param":{"num_deleted":"0","num_feature":"27","num_nodes":"87","size_leaf_vector":"1"}},{"base_weights":[-1.1708039E-3,1.2467442E-2,-6.387299E-2,3.5132088E-2,-5.5943858E-2,-4.3983024E-2,-4.8627207E-1,-2.1436706E-2,8.641697E-2,2.4387412E-2,-1.3108526E-1,-1.1282485E-1,3.453895E-2,-7.1546406E-1,-1.6764706E-1,3.2566115E-2,-8.8040814E-2,-7.4442886E-3,1.17143445E-1,-5.074176E-2,1.4927752E-1,-1.0408961E-1,-5.363196E-1,-6.738401E-2,-5.525775E-1,-3.4359857E-2,5.8381057E-1,-8.0101407E-1,-2.7735934E-2,-4.5294117E-2,-6.2184878E-2,-8.688939E-2,7.709962E-2,-1.2823124E-1,1.7006052E-1,3.187326E-2,-1.669392E-1,1.3140965E-1,-2.6345605E-1,-8.181194E-2,4.847002E-1,1.9521086E-1,-5.328312E-1,-2.2097926E-1,-1.927919E-2,-1.8702924E-2,-6.2240373E-2,1.1529456E-3,-3.804079E-1,-8.401055E-1,3.055107E-2,7.4492134E-2,-2.9176784E-1,7.058823E-3,6.8174917E-1,-9.247059E-2,-3.278564E-2,-1.2470589E-2,6.2745097E-3,-5.878953E-3,-1.2798385E-1,6.208553E-3,7.643393E-2,-8.328299E-3,-2.9164761E-2,3.3358466E-3,3.208829E-2,-1.7698327E-3,2.2163518E-2,2.0864083E-2,-4.706482E-2,1.4687072E-2,-6.5829293E-3,-4.6445034E-2,1.1874213E-2,-1.5629673E-2,1.3467059E-2,6.752941E-2,5.4769515E-4,1.0240967E-2,3.844303E-2,-9.580195E-2,-1.8702924E-2,-3.3781845E-2,-4.7752424E-3,6.270833E-3,-2.3901816E-2,-4.721094E-3,2.5830848E-2,-4.908135E-2,-3.0971915E-2,-4.9220726E-2,-1.06798865E-1,1.616671E-2,-5.3475704E-2,-4.224296E-2,1.816589E-2,8.298138E-2,4.484659E-2],"categories":[],"categories_nodes":[],"categories_segments":[],"categories_sizes":[],"default_left":[0,0,0,0,0,0,0,0,0,0,0,0,0,0,0,0,0,0,0,0,0,0,0,0,0,0,0,0,0,0,0,0,0,0,0,0,0,0,0,0,0,0,0,0,0,0,0,0,0,0,0,0,0,0,0,0,0,0,0,0,0,0,0,0,0,0,0,0,0,0,0,0,0,0,0,0,0,0,0,0,0,0,0,0,0,0,0,0,0,0,0,0,0,0,0,0,0,0,0],"id":7,"left_children":[1,3,5,7,9,11,13,15,17,19,21,23,25,27,29,31,33,35,37,39,41,43,45,47,49,51,53,55,-1,-1,57,59,61,63,65,67,69,71,73,75,77,79,81,83,85,-1,-1,87,89,91,-1,93,95,-1,97,-1,-1,-1,-1,-1,-1,-1,-1,-1,-1,-1,-1,-1,-1,-1,-1,-1,-1,-1,-1,-1,-1,-1,-1,-1,-1,-1,-1,-1,-1,-1,-1,-1,-1,-1,-1,-1,-1,-1,-1,-1,-1,-1,-1],"loss_changes":[1.7136574E0,2.5541182E0,2.9863505E0,3.5905428E0,2.4780407E0,1.8580164E0,1.0484755E0,2.121388E0,1.8726044E0,1.8747699E0,2.2633631E0,3.6196048E0,6.112969E0,1.15149975E-1,2.1253583E-1,1.740945E0,2.7603326E0,1.0149437E0,2.6897488E0,2.1191893E0,2.4538784E0,1.9784319E0,2.7448082E-1,3.5832076E0,4.450976E0,4.056524E0,8.566332E-1,1.0650921E-1,0E0,0E0,6.2499914E-2,2.9081907E0,2.408296E0,1.6577797E0,7.315341E-1,1.2268066E0,3.7483413E0,1.4490452E0,1.4379034E0,1.9398824E0,6.3566077E-1,1.2073755E0,5.559771E-1,1.6840014E0,2.1228433E0,0E0,0E0,1.7285067E0,8.211851E-2,5.0497055E-1,0E0,5.5038033E0,2.7366645E0,0E0,1.4597178E-1,0E0,0E0,0E0,0E0,0E0,0E0,0E0,0E0,0E0,0E0,0E0,0E0,0E0,0E0,0E0,0E0,0E0,0E0,0E0,0E0,0E0,0E0,0E0,0E0,0E0,0E0,0E0,0E0,0E0,0E0,0E0,0E0,0E0,0E0,0E0,0E0,0E0,0E0,0E0,0E0,0E0,0E0,0E0,0E0],"parents":[2147483647,0,0,1,1,2,2,3,3,4,4,5,5,6,6,7,7,8,8,9,9,10,10,11,11,12,12,13,13,14,14,15,15,16,16,17,17,18,18,19,19,20,20,21,21,22,22,23,23,24,24,25,25,26,26,27,27,30,30,31,31,32,32,33,33,34,34,35,35,36,36,37,37,38,38,39,39,40,40,41,41,42,42,43,43,44,44,47,47,48,48,49,49,51,51,52,52,54,54],"right_children":[2,4,6,8,10,12,14,16,18,20,22,24,26,28,30,32,34,36,38,40,42,44,46,48,50,52,54,56,-1,-1,58,60,62,64,66,68,70,72,74,76,78,80,82,84,86,-1,-1,88,90,92,-1,94,96,-1,98,-1,-1,-1,-1,-1,-1,-1,-1,-1,-1,-1,-1,-1,-1,-1,-1,-1,-1,-1,-1,-1,-1,-1,-1,-1,-1,-1,-1,-1,-1,-1,-1,-1,-1,-1,-1,-1,-1,-1,-1,-1,-1,-1,-1],"split_conditions":[1E0,1E0,1E0,1E0,1E0,1E0,1E0,1E0,2E0,1E0,1E0,1E0,1E0,1E0,2E0,1E0,1E0,1E0,1E0,1E0,1E0,1E0,2E0,1E0,3E0,1E0,2E0,3E0,-2.7735934E-2,-4.5294117E-2,1E0,1E0,1E0,1E0,1E0,1E0,1E0,1E0,1E0,1E0,3E0,1E0,2E0,1E0,1E0,-1.8702924E-2,-6.2240373E-2,1E0,1E0,1E0,3.055107E-2,1E0,1E0,7.058823E-3,1E0,-9.247059E-2,-3.278564E-2,-1.2470589E-2,6.2745097E-3,-5.878953E-3,-1.2798385E-1,6.208553E-3,7.643393E-2,-8.328299E-3,-2.9164761E-2,3.3358466E-3,3.208829E-2,-1.7698327E-3,2.2163518E-2,2.0864083E-2,-4.706482E-2,1.4687072E-2,-6.5829293E-3,-4.6445034E-2,1.1874213E-2,-1.5629673E-2,1.3467059E-2,6.752941E-2,5.4769515E-4,1.0240967E-2,3.844303E-2,-9.580195E-2,-1.8702924E-2,-3.3781845E-2,-4.7752424E-3,6.270833E-3,-2.3901816E-2,-4.721094E-3,2.5830848E-2,-4.908135E-2,-3.0971915E-2,-4.9220726E-2,-1.06798865E-1,1.616671E-2,-5.3475704E-2,-4.224296E-2,1.816589E-2,8.298138E-2,4.484659E-2],"split_indices":[22,24,16,6,6,3,3,5,0,1,12,14,14,1,0,4,13,14,19,8,11,4,0,13,0,2,0,0,0,0,5,16,11,17,23,26,4,7,1,17,0,2,0,3,13,0,0,8,4,5,0,8,5,0,6,0,0,0,0,0,0,0,0,0,0,0,0,0,0,0,0,0,0,0,0,0,0,0,0,0,0,0,0,0,0,0,0,0,0,0,0,0,0,0,0,0,0,0,0],"split_type":[0,0,0,0,0,0,0,0,0,0,0,0,0,0,0,0,0,0,0,0,0,0,0,0,0,0,0,0,0,0,0,0,0,0,0,0,0,0,0,0,0,0,0,0,0,0,0,0,0,0,0,0,0,0,0,0,0,0,0,0,0,0,0,0,0,0,0,0,0,0,0,0,0,0,0,0,0,0,0,0,0,0,0,0,0,0,0,0,0,0,0,0,0,0,0,0,0,0,0],"sum_hessian":[2.002E3,1.645E3,3.57E2,1.236E3,4.09E2,3.42E2,1.5E1,5.88E2,6.48E2,1.98E2,2.11E2,1.82E2,1.6E2,8E0,7E0,3.25E2,2.63E2,1.6E2,4.88E2,1.24E2,7.4E1,1.99E2,1.2E1,1.66E2,1.6E1,1.43E2,1.7E1,6E0,2E0,1E0,6E0,8.8E1,2.37E2,2.28E2,3.5E1,1.29E2,3.1E1,4.71E2,1.7E1,1.18E2,6E0,7E1,4E0,8.3E1,1.16E2,3E0,9E0,1.37E2,2.9E1,1.2E1,4E0,1.01E2,4.2E1,3E0,1.4E1,4E0,2E0,4E0,2E0,8.7E1,1E0,2.33E2,4E0,1.8E2,4.8E1,1.9E1,1.6E1,1.03E2,2.6E1,1.4E1,1.7E1,4.37E2,3.4E1,1.1E1,6E0,8.8E1,3E1,4E0,2E0,4.8E1,2.2E1,1E0,3E0,4.9E1,3.4E1,8.5E1,3.1E1,1.16E2,2.1E1,9E0,2E1,6E0,6E0,8.9E1,1.2E1,3.3E1,9E0,7E0,7E0],"tree_param":{"num_deleted":"0","num_feature":"27","num_nodes":"99","size_leaf_vector":"1"}},{"base_weights":[-1.3222885E-3,5.9108622E-3,-1.1487173E-1,-8.284802E-3,5.8264736E-2,-1.9533606E-1,3.2314053E-1,-1.7933443E-2,8.819152E-2,8.2813926E-2,-1.16217814E-1,-4.1685978E-1,-2.6821144E-2,3.8628232E-1,-4.0670585E-2,-7.1833967E-3,-1.3001923E-1,9.6064046E-2,-1.9365E-1,1.9409114E-2,1.5095316E-1,-6.9266E-2,-8.287075E-2,-4.8057964E-1,1.7627092E-1,1.6988337E-1,-2.0996985E-1,4.6485934E-1,-4.951954E-3,1.1845248E-2,-5.8379706E-2,-5.037783E-2,-3.424812E-1,1.09997295E-1,-3.994008E-2,-5.6637507E-2,4.6226263E-2,-5.639414E-3,3.2397264E-1,1.6564088E-1,-1.671781E-1,-5.598329E-3,-1.8503655E-1,-6.18301E-1,-1.469814E-1,4.3548573E-2,-4.3029416E-2,2.4071534E-1,-9.0670586E-2,-3.191881E-1,9.24734E-2,6.5276206E-2,1.5686165E-1,3.8845062E-3,-3.2499314E-3,-4.7348677E-3,6.2471298E-3,3.2145176E-3,-1.4485749E-2,-2.9191712E-2,4.0986557E-3,-5.767382E-2,2.3055797E-2,8.532922E-3,2.9067496E-2,-1.7345443E-2,1.4473574E-2,-1.6136788E-3,5.8759242E-2,3.80333E-2,8.79885E-3,2.7685765E-2,8.51369E-3,2.537562E-2,-3.4978222E-2,-3.1457353E-2,1.4914374E-2,9.12461E-3,-7.0676245E-2,-2.6123375E-2,-7.038087E-2,-8.988437E-2,1.6846165E-2,-2.2081623E-2,3.2683793E-2,-4.2055868E-2,3.8121701E-3,3.8250376E-2,-3.6569048E-2,4.3465067E-2,3.8121701E-3],"categories":[],"categories_nodes":[],"categories_segments":[],"categories_sizes":[],"default_left":[0,0,0,0,0,0,0,0,0,0,0,0,0,0,0,0,0,0,0,0,0,0,0,0,0,0,0,0,0,0,0,0,0,0,0,0,0,0,0,0,0,0,0,0,0,0,0,0,0,0,0,0,0,0,0,0,0,0,0,0,0,0,0,0,0,0,0,0,0,0,0,0,0,0,0,0,0,0,0,0,0,0,0,0,0,0,0,0,0,0,0],"id":8,"left_children":[1,3,5,7,9,11,13,15,17,19,21,23,25,27,-1,29,31,33,35,37,39,41,-1,43,45,47,49,51,53,55,57,59,61,63,65,-1,-1,67,69,71,73,75,77,79,81,-1,-1,83,-1,85,87,-1,89,-1,-1,-1,-1,-1,-1,-1,-1,-1,-1,-1,-1,-1,-1,-1,-1,-1,-1,-1,-1,-1,-1,-1,-1,-1,-1,-1,-1,-1,-1,-1,-1,-1,-1,-1,-1,-1,-1],"loss_changes":[1.6457834E0,1.4006678E0,4.2924447E0,1.382055E0,1.7315531E0,3.796485E0,1.0326959E0,1.6245133E0,3.181417E-1,1.5221555E0,1.6152332E0,1.7476573E0,2.1612146E0,5.5565786E-1,0E0,1.2009015E0,1.9793975E0,2.5453055E-1,1.2397144E0,1.4055388E0,8.22037E-1,3.527645E-1,0E0,1.7468643E0,9.7354025E-1,2.429709E0,1.0535183E0,7.657106E-1,6.0884063E-3,2.6970403E0,2.619339E0,1.9318885E0,4.4286013E0,5.100335E-1,3.4564438E-1,0E0,0E0,1.0743632E0,1.5273714E-1,1.435832E0,7.0367414E-1,1.5768834E0,2.514934E0,6.710367E-1,3.2346272E0,0E0,0E0,1.1851236E0,0E0,8.491087E-1,1.3358107E0,0E0,2.1432295E-1,0E0,0E0,0E0,0E0,0E0,0E0,0E0,0E0,0E0,0E0,0E0,0E0,0E0,0E0,0E0,0E0,0E0,0E0,0E0,0E0,0E0,0E0,0E0,0E0,0E0,0E0,0E0,0E0,0E0,0E0,0E0,0E0,0E0,0E0,0E0,0E0,0E0,0E0],"parents":[2147483647,0,0,1,1,2,2,3,3,4,4,5,5,6,6,7,7,8,8,9,9,10,10,11,11,12,12,13,13,15,15,16,16,17,17,18,18,19,19,20,20,21,21,23,23,24,24,25,25,26,26,27,27,28,28,29,29,30,30,31,31,32,32,33,33,34,34,37,37,38,38,39,39,40,40,41,41,42,42,43,43,44,44,47,47,49,49,50,50,52,52],"right_children":[2,4,6,8,10,12,14,16,18,20,22,24,26,28,-1,30,32,34,36,38,40,42,-1,44,46,48,50,52,54,56,58,60,62,64,66,-1,-1,68,70,72,74,76,78,80,82,-1,-1,84,-1,86,88,-1,90,-1,-1,-1,-1,-1,-1,-1,-1,-1,-1,-1,-1,-1,-1,-1,-1,-1,-1,-1,-1,-1,-1,-1,-1,-1,-1,-1,-1,-1,-1,-1,-1,-1,-1,-1,-1,-1,-1],"split_conditions":[1E0,1E0,1E0,3E0,1E0,1E0,1E0,1E0,1E0,1E0,3E0,1E0,1E0,1E0,-4.0670585E-2,1E0,1E0,1E0,1E0,1E0,1E0,2E0,-8.287075E-2,1E0,1E0,1E0,1E0,1E0,1E0,1E0,1E0,1E0,1E0,1E0,1E0,-5.6637507E-2,4.6226263E-2,1E0,1E0,1E0,2E0,1E0,1E0,2E0,2E0,4.3548573E-2,-4.3029416E-2,2E0,-9.0670586E-2,1E0,1E0,6.5276206E-2,2E0,3.8845062E-3,-3.2499314E-3,-4.7348677E-3,6.2471298E-3,3.2145176E-3,-1.4485749E-2,-2.9191712E-2,4.0986557E-3,-5.767382E-2,2.3055797E-2,8.532922E-3,2.9067496E-2,-1.7345443E-2,1.4473574E-2,-1.6136788E-3,5.8759242E-2,3.80333E-2,8.79885E-3,2.7685765E-2,8.51369E-3,2.537562E-2,-3.4978222E-2,-3.1457353E-2,1.4914374E-2,9.12461E-3,-7.0676245E-2,-2.6123375E-2,-7.038087E-2,-8.988437E-2,1.6846165E-2,-2.2081623E-2,3.2683793E-2,-4.2055868E-2,3.8121701E-3,3.8250376E-2,-3.6569048E-2,4.3465067E-2,3.8121701E-3],"split_indices":[16,25,2,0,14,4,22,7,11,6,0,3,3,1,0,24,5,10,23,12,19,0,0,26,22,22,5,25,23,6,6,4,2,2,26,0,0,18,3,4,0,5,5,0,0,0,0,0,0,25,25,0,0,0,0,0,0,0,0,0,0,0,0,0,0,0,0,0,0,0,0,0,0,0,0,0,0,0,0,0,0,0,0,0,0,0,0,0,0,0,0],"split_type":[0,0,0,0,0,0,0,0,0,0,0,0,0,0,0,0,0,0,0,0,0,0,0,0,0,0,0,0,0,0,0,0,0,0,0,0,0,0,0,0,0,0,0,0,0,0,0,0,0,0,0,0,0,0,0,0,0,0,0,0,0,0,0,0,0,0,0,0,0,0,0,0,0,0,0,0,0,0,0,0,0,0,0,0,0,0,0,0,0,0,0],"sum_hessian":[2.002E3,1.883E3,1.19E2,1.482E3,4.01E2,1.01E2,1.8E1,1.348E3,1.34E2,3.52E2,4.9E1,4.3E1,5.8E1,1.7E1,1E0,1.231E3,1.17E2,1.31E2,3E0,1.83E2,1.69E2,4.7E1,2E0,3.9E1,4E0,2.8E1,3E1,1.4E1,3E0,8.98E2,3.33E2,8.6E1,3.1E1,1.19E2,1.2E1,2E0,1E0,1.7E2,1.3E1,1.62E2,7E0,3.1E1,1.6E1,2.7E1,1.2E1,3E0,1E0,2.7E1,1E0,2.2E1,8E0,8E0,6E0,1E0,2E0,4.14E2,4.84E2,1.63E2,1.7E2,2.3E1,6.3E1,2.2E1,9E0,1.06E2,1.3E1,7E0,5E0,1.68E2,2E0,1E1,3E0,6.7E1,9.5E1,2E0,5E0,1E1,2.1E1,1.1E1,5E0,6E0,2.1E1,3E0,9E0,4E0,2.3E1,1.7E1,5E0,5E0,3E0,1E0,5E0],"tree_param":{"num_deleted":"0","num_feature":"27","num_nodes":"91","size_leaf_vector":"1"}},{"base_weights":[-1.3341722E-3,5.2796896E-3,-1.0516068E-1,-7.4867364E-3,5.2362602E-2,-1.7860298E-1,2.946432E-1,-3.8471058E-2,2.102211E-2,7.4902356E-2,-1.0781532E-1,-3.790152E-1,-2.6115822E-2,3.5394233E-1,-3.8637053E-2,-4.291037E-2,5.96942E-1,5.124997E-3,1.6674793E-1,1.803323E-2,1.3601422E-1,-6.396635E-2,-7.734604E-2,-4.367602E-1,1.5874763E-1,-1.2495629E-1,2.7214664E-1,4.2587695E-1,-4.2980313E-3,-6.815359E-2,4.175507E-2,7.195443E-2,5.326641E-3,-1.893812E-2,1.0290966E-1,-2.3387137E-1,4.0531486E-1,-4.741348E-3,2.9492036E-1,1.521431E-1,-1.3726234E-1,-5.555421E-3,-1.701536E-1,-5.599174E-1,-1.3790157E-1,4.028243E-2,-4.087795E-2,-2.2772665E-1,2.5751266E-1,4.4400752E-1,1.2304579E-2,5.947388E-1,1.4792927E-1,3.6902786E-3,-3.0332566E-3,-6.0129627E-3,-3.681962E-2,1.1596992E-2,-2.9112974E-2,-4.98661E-3,3.801502E-3,-6.4236396E-3,2.2489352E-2,1.4617007E-3,-5.8711465E-2,5.129015E-2,2.1410888E-2,-2.089664E-3,3.767393E-2,3.4575712E-2,8.138919E-3,2.7880257E-3,1.9863615E-2,1.5525072E-2,-4.6082553E-2,-2.8597588E-2,1.3490732E-2,8.288181E-3,-6.4786546E-2,-2.3884226E-2,-6.366269E-2,-8.314305E-2,1.5330014E-2,-7.068711E-3,-3.8083915E-2,4.730916E-2,3.4944774E-3,5.5669744E-2,3.306182E-3,3.5979666E-2,-3.3826362E-2,6.543856E-2,2.5731659E-2,4.129181E-2,3.4944774E-3],"categories":[],"categories_nodes":[],"categories_segments":[],"categories_sizes":[],"default_left":[0,0,0,0,0,0,0,0,0,0,0,0,0,0,0,0,0,0,0,0,0,0,0,0,0,0,0,0,0,0,0,0,0,0,0,0,0,0,0,0,0,0,0,0,0,0,0,0,0,0,0,0,0,0,0,0,0,0,0,0,0,0,0,0,0,0,0,0,0,0,0,0,0,0,0,0,0,0,0,0,0,0,0,0,0,0,0,0,0,0,0,0,0,0,0],"id":9,"left_children":[1,3,5,7,9,11,13,15,17,19,21,23,25,27,-1,29,31,33,35,37,39,41,-1,43,45,47,49,51,53,55,57,-1,-1,59,61,63,65,67,69,71,73,75,77,79,81,-1,-1,83,85,87,89,91,93,-1,-1,-1,-1,-1,-1,-1,-1,-1,-1,-1,-1,-1,-1,-1,-1,-1,-1,-1,-1,-1,-1,-1,-1,-1,-1,-1,-1,-1,-1,-1,-1,-1,-1,-1,-1,-1,-1,-1,-1,-1,-1],"loss_changes":[1.3760037E0,1.1328276E0,3.5761254E0,1.3107831E0,1.4594446E0,3.1072514E0,9.0403986E-1,2.0312018E0,1.7898927E0,1.2243559E0,1.4099171E0,1.4356718E0,1.7733499E0,4.6568823E-1,0E0,1.5138665E0,2.949518E-1,1.6443458E0,7.3584538E0,1.1617E0,7.7018356E-1,2.9677454E-1,0E0,1.39505E0,8.5726696E-1,1.8274338E0,6.6438687E-1,6.160424E-1,5.4099327E-3,1.2899649E0,4.0606766E0,0E0,0E0,9.900666E-1,2.8281448E0,2.5541105E0,8.7760115E-1,1.0617338E0,1.23832345E-1,9.246166E-1,1.018008E0,1.2990162E0,2.1086228E0,5.375738E-1,2.752897E0,0E0,0E0,8.386891E-1,4.6327752E-1,3.9837956E-1,9.7444385E-1,1.2751102E-2,1.9514805E-1,0E0,0E0,0E0,0E0,0E0,0E0,0E0,0E0,0E0,0E0,0E0,0E0,0E0,0E0,0E0,0E0,0E0,0E0,0E0,0E0,0E0,0E0,0E0,0E0,0E0,0E0,0E0,0E0,0E0,0E0,0E0,0E0,0E0,0E0,0E0,0E0,0E0,0E0,0E0,0E0,0E0,0E0],"parents":[2147483647,0,0,1,1,2,2,3,3,4,4,5,5,6,6,7,7,8,8,9,9,10,10,11,11,12,12,13,13,15,15,16,16,17,17,18,18,19,19,20,20,21,21,23,23,24,24,25,25,26,26,27,27,28,28,29,29,30,30,33,33,34,34,35,35,36,36,37,37,38,38,39,39,40,40,41,41,42,42,43,43,44,44,47,47,48,48,49,49,50,50,51,51,52,52],"right_children":[2,4,6,8,10,12,14,16,18,20,22,24,26,28,-1,30,32,34,36,38,40,42,-1,44,46,48,50,52,54,56,58,-1,-1,60,62,64,66,68,70,72,74,76,78,80,82,-1,-1,84,86,88,90,92,94,-1,-1,-1,-1,-1,-1,-1,-1,-1,-1,-1,-1,-1,-1,-1,-1,-1,-1,-1,-1,-1,-1,-1,-1,-1,-1,-1,-1,-1,-1,-1,-1,-1,-1,-1,-1,-1,-1,-1,-1,-1,-1],"split_conditions":[1E0,1E0,1E0,1E0,1E0,1E0,1E0,1E0,1E0,1E0,3E0,1E0,1E0,1E0,-3.8637053E-2,1E0,1E0,1E0,2E0,1E0,1E0,2E0,-7.734604E-2,1E0,1E0,1E0,1E0,1E0,1E0,1E0,1E0,7.195443E-2,5.326641E-3,1E0,1E0,1E0,1E0,1E0,1E0,2E0,1E0,1E0,1E0,2E0,2E0,4.028243E-2,-4.087795E-2,1E0,1E0,1E0,1E0,1E0,2E0,3.6902786E-3,-3.0332566E-3,-6.0129627E-3,-3.681962E-2,1.1596992E-2,-2.9112974E-2,-4.98661E-3,3.801502E-3,-6.4236396E-3,2.2489352E-2,1.4617007E-3,-5.8711465E-2,5.129015E-2,2.1410888E-2,-2.089664E-3,3.767393E-2,3.4575712E-2,8.138919E-3,2.7880257E-3,1.9863615E-2,1.5525072E-2,-4.6082553E-2,-2.8597588E-2,1.3490732E-2,8.288181E-3,-6.4786546E-2,-2.3884226E-2,-6.366269E-2,-8.314305E-2,1.5330014E-2,-7.068711E-3,-3.8083915E-2,4.730916E-2,3.4944774E-3,5.5669744E-2,3.306182E-3,3.5979666E-2,-3.3826362E-2,6.543856E-2,2.5731659E-2,4.129181E-2,3.4944774E-3],"split_indices":[16,25,2,1,14,4,22,9,14,6,0,3,5,1,0,23,24,17,0,12,15,0,0,26,22,25,25,25,23,19,17,0,0,5,6,4,26,10,3,0,2,5,5,0,0,0,0,3,3,22,3,23,0,0,0,0,0,0,0,0,0,0,0,0,0,0,0,0,0,0,0,0,0,0,0,0,0,0,0,0,0,0,0,0,0,0,0,0,0,0,0,0,0,0,0],"split_type":[0,0,0,0,0,0,0,0,0,0,0,0,0,0,0,0,0,0,0,0,0,0,0,0,0,0,0,0,0,0,0,0,0,0,0,0,0,0,0,0,0,0,0,0,0,0,0,0,0,0,0,0,0,0,0,0,0,0,0,0,0,0,0,0,0,0,0,0,0,0,0,0,0,0,0,0,0,0,0,0,0,0,0,0,0,0,0,0,0,0,0,0,0,0,0],"sum_hessian":[2.002E3,1.883E3,1.19E2,1.482E3,4.01E2,1.01E2,1.8E1,7.1E2,7.72E2,3.52E2,4.9E1,4.3E1,5.8E1,1.7E1,1E0,7.06E2,4E0,6.97E2,7.5E1,1.83E2,1.69E2,4.7E1,2E0,3.9E1,4E0,4.4E1,1.4E1,1.4E1,3E0,5.44E2,1.62E2,3E0,1E0,5.6E2,1.37E2,2.8E1,4.7E1,1.7E2,1.3E1,1.6E2,9E0,3.1E1,1.6E1,2.7E1,1.2E1,3E0,1E0,3.5E1,9E0,8E0,6E0,8E0,6E0,1E0,2E0,5.31E2,1.3E1,1.33E2,2.9E1,3.63E2,1.97E2,5.8E1,7.9E1,1.7E1,1.1E1,2.9E1,1.8E1,1.64E2,6E0,1E1,3E0,4.4E1,1.16E2,5E0,4E0,1E1,2.1E1,1.1E1,5E0,6E0,2.1E1,3E0,9E0,1.8E1,1.7E1,4E0,5E0,6E0,2E0,3E0,3E0,6E0,2E0,1E0,5E0],"tree_param":{"num_deleted":"0","num_feature":"27","num_nodes":"95","size_leaf_vector":"1"}},{"base_weights":[-1.2120118E-3,1.022629E-2,-5.379925E-2,2.7577227E-2,-4.2147703E-2,-1.2159484E-1,2.3598108E-2,-1.6533414E-2,6.756735E-2,2.3233837E-2,-1.0332119E-1,-1.671507E-1,2.3595488E-1,-3.433975E-2,5.0832134E-1,3.2072987E-2,-7.6492324E-2,5.1062077E-2,2.1763802E-1,7.397571E-2,-1.424415E-1,-7.878783E-2,-4.7280967E-1,-1.2860413E-1,-5.065051E-1,6.469044E-1,-9.831051E-2,5.4962415E-2,-2.5991175E-1,7.5228356E-2,2.8468326E-1,-7.5923175E-2,7.2323345E-2,-1.12452954E-1,1.5438202E-1,3.613917E-2,2.4348876E-1,2.9296613E-1,4.944397E-2,9.3342274E-2,-5.179429E-2,-6.642416E-2,-1.2352212E-1,-1.7958544E-1,-5.746917E-3,-1.6498882E-2,-5.4865707E-2,-1.0105519E-1,-5.6121975E-1,-7.577062E-1,2.4791889E-1,3.6613882E-1,8.544423E-2,-2.455227E-1,2.9429758E-2,1.2681535E-1,-4.8539895E-1,-3.7687907E-1,1.6376825E-1,6.5118494E-3,3.5888024E-2,-5.1119276E-3,-1.129333E-1,5.839371E-3,7.097656E-2,-8.694803E-3,-3.37108E-2,2.142694E-2,-1.2433277E-2,-5.118178E-3,6.5016034E-3,1.5466099E-2,5.1227152E-2,4.159964E-2,1.3840939E-2,-1.0476812E-2,1.5240281E-2,1.0668645E-2,-5.916362E-2,-3.5450973E-2,5.4459507E-4,-2.7858526E-2,-3.302612E-3,6.689865E-3,-2.008023E-2,-3.8798198E-3,-3.4048896E-2,-8.0329515E-2,-3.0629953E-2,-5.3700175E-2,-1.12004094E-1,3.1676292E-2,9.643523E-3,5.2689714E-3,5.0969094E-2,-9.411165E-3,-4.4911135E-2,-6.950162E-4,2.9496161E-2,-8.7772004E-2,-2.135096E-2,-4.4087827E-2,4.3140557E-2,5.2945446E-2,6.430817E-3],"categories":[],"categories_nodes":[],"categories_segments":[],"categories_sizes":[],"default_left":[0,0,0,0,0,0,0,0,0,0,0,0,0,0,0,0,0,0,0,0,0,0,0,0,0,0,0,0,0,0,0,0,0,0,0,0,0,0,0,0,0,0,0,0,0,0,0,0,0,0,0,0,0,0,0,0,0,0,0,0,0,0,0,0,0,0,0,0,0,0,0,0,0,0,0,0,0,0,0,0,0,0,0,0,0,0,0,0,0,0,0,0,0,0,0,0,0,0,0,0,0,0,0,0,0],"id":10,"left_children":[1,3,5,7,9,11,13,15,17,19,21,23,25,27,29,31,33,35,37,39,41,43,45,47,49,51,53,55,57,-1,59,61,63,65,67,69,71,73,75,77,-1,79,-1,81,83,-1,-1,85,87,89,91,93,-1,95,-1,97,99,101,103,-1,-1,-1,-1,-1,-1,-1,-1,-1,-1,-1,-1,-1,-1,-1,-1,-1,-1,-1,-1,-1,-1,-1,-1,-1,-1,-1,-1,-1,-1,-1,-1,-1,-1,-1,-1,-1,-1,-1,-1,-1,-1,-1,-1,-1,-1],"loss_changes":[1.205372E0,1.4969449E0,1.8813668E0,2.1831727E0,1.6422431E0,3.1505413E0,4.735538E0,1.7190272E0,1.5964322E0,1.6834658E0,1.8844845E0,2.1586237E0,3.0856538E0,3.0560396E0,7.679038E-1,1.4225752E0,2.2091908E0,1.6739378E0,7.9637814E-1,1.8022501E0,3.8222513E0,1.4714377E0,2.129941E-1,1.7786729E0,3.4095564E0,2.6985025E-1,8.236137E-1,4.29365E0,2.1926594E0,0E0,1.5583175E-1,2.2677207E0,2.0718367E0,1.2828155E0,6.275345E-1,1.3775749E0,9.2353725E-1,7.79089E-1,3.4939438E-1,1.4250495E0,0E0,9.336438E-1,0E0,1.2095842E0,1.6713128E0,0E0,0E0,2.1631277E0,3.0934048E-1,4.3813133E-1,2.159664E-2,2.4312228E-1,0E0,2.6598912E-1,0E0,2.1837902E0,1.1992812E0,1.9490032E0,3.296636E-1,0E0,0E0,0E0,0E0,0E0,0E0,0E0,0E0,0E0,0E0,0E0,0E0,0E0,0E0,0E0,0E0,0E0,0E0,0E0,0E0,0E0,0E0,0E0,0E0,0E0,0E0,0E0,0E0,0E0,0E0,0E0,0E0,0E0,0E0,0E0,0E0,0E0,0E0,0E0,0E0,0E0,0E0,0E0,0E0,0E0,0E0],"parents":[2147483647,0,0,1,1,2,2,3,3,4,4,5,5,6,6,7,7,8,8,9,9,10,10,11,11,12,12,13,13,14,14,15,15,16,16,17,17,18,18,19,19,20,20,21,21,22,22,23,23,24,24,25,25,26,26,27,27,28,28,30,30,31,31,32,32,33,33,34,34,35,35,36,36,37,37,38,38,39,39,41,41,43,43,44,44,47,47,48,48,49,49,50,50,51,51,53,53,55,55,56,56,57,57,58,58],"right_children":[2,4,6,8,10,12,14,16,18,20,22,24,26,28,30,32,34,36,38,40,42,44,46,48,50,52,54,56,58,-1,60,62,64,66,68,70,72,74,76,78,-1,80,-1,82,84,-1,-1,86,88,90,92,94,-1,96,-1,98,100,102,104,-1,-1,-1,-1,-1,-1,-1,-1,-1,-1,-1,-1,-1,-1,-1,-1,-1,-1,-1,-1,-1,-1,-1,-1,-1,-1,-1,-1,-1,-1,-1,-1,-1,-1,-1,-1,-1,-1,-1,-1,-1,-1,-1,-1,-1,-1],"split_conditions":[1E0,1E0,1E0,1E0,1E0,1E0,1E0,1E0,1E0,1E0,1E0,1E0,1E0,1E0,1E0,1E0,1E0,1E0,1E0,1E0,1E0,1E0,2E0,1E0,3E0,1E0,1E0,1E0,1E0,7.5228356E-2,2E0,1E0,1E0,1E0,1E0,2E0,1E0,1E0,2E0,1E0,-5.179429E-2,2E0,-1.2352212E-1,1E0,1E0,-1.6498882E-2,-5.4865707E-2,1E0,1E0,1E0,1E0,2E0,8.544423E-2,1E0,2.9429758E-2,1E0,1E0,1E0,2E0,6.5118494E-3,3.5888024E-2,-5.1119276E-3,-1.129333E-1,5.839371E-3,7.097656E-2,-8.694803E-3,-3.37108E-2,2.142694E-2,-1.2433277E-2,-5.118178E-3,6.5016034E-3,1.5466099E-2,5.1227152E-2,4.159964E-2,1.3840939E-2,-1.0476812E-2,1.5240281E-2,1.0668645E-2,-5.916362E-2,-3.5450973E-2,5.4459507E-4,-2.7858526E-2,-3.302612E-3,6.689865E-3,-2.008023E-2,-3.8798198E-3,-3.4048896E-2,-8.0329515E-2,-3.0629953E-2,-5.3700175E-2,-1.12004094E-1,3.1676292E-2,9.643523E-3,5.2689714E-3,5.0969094E-2,-9.411165E-3,-4.4911135E-2,-6.950162E-4,2.9496161E-2,-8.7772004E-2,-2.135096E-2,-4.4087827E-2,4.3140557E-2,5.2945446E-2,6.430817E-3],"split_indices":[22,24,3,6,6,8,14,5,20,3,12,14,1,2,6,4,13,11,25,16,13,4,0,16,0,6,5,8,5,0,0,16,11,11,26,0,4,1,0,18,0,0,0,3,13,0,0,13,5,2,1,0,0,2,0,1,1,12,0,0,0,0,0,0,0,0,0,0,0,0,0,0,0,0,0,0,0,0,0,0,0,0,0,0,0,0,0,0,0,0,0,0,0,0,0,0,0,0,0,0,0,0,0,0,0],"split_type":[0,0,0,0,0,0,0,0,0,0,0,0,0,0,0,0,0,0,0,0,0,0,0,0,0,0,0,0,0,0,0,0,0,0,0,0,0,0,0,0,0,0,0,0,0,0,0,0,0,0,0,0,0,0,0,0,0,0,0,0,0,0,0,0,0,0,0,0,0,0,0,0,0,0,0,0,0,0,0,0,0,0,0,0,0,0,0,0,0,0,0,0,0,0,0,0,0,0,0,0,0,0,0,0,0],"sum_hessian":[2.002E3,1.645E3,3.57E2,1.236E3,4.09E2,1.9E2,1.67E2,5.88E2,6.48E2,1.98E2,2.11E2,1.69E2,2.1E1,1.5E2,1.7E1,3.25E2,2.63E2,5.85E2,6.3E1,1.52E2,4.6E1,1.99E2,1.2E1,1.53E2,1.6E1,9E0,1.2E1,1.08E2,4.2E1,7E0,1E1,8.8E1,2.37E2,2.28E2,3.5E1,5.44E2,4.1E1,4.3E1,2E1,1.48E2,4E0,4.4E1,2E0,8.3E1,1.16E2,3E0,9E0,1.45E2,8E0,1.2E1,4E0,5E0,4E0,9E0,3E0,9.6E1,1.2E1,3.3E1,9E0,3E0,7E0,8.7E1,1E0,2.33E2,4E0,2.06E2,2.2E1,2.9E1,6E0,1.35E2,4.09E2,3.2E1,9E0,2.3E1,2E1,8E0,1.2E1,1.46E2,2E0,8E0,3.6E1,4.9E1,3.4E1,8.5E1,3.1E1,1.16E2,2.9E1,3E0,5E0,9E0,3E0,2E0,2E0,2E0,3E0,6E0,3E0,5.4E1,4.2E1,4E0,8E0,3.1E1,2E0,1E0,8E0],"tree_param":{"num_deleted":"0","num_feature":"27","num_nodes":"105","size_leaf_vector":"1"}},{"base_weights":[-1.2814344E-3,4.3683266E-3,-8.9972004E-2,-6.7415014E-3,4.5342226E-2,-1.5610686E-1,2.6980314E-1,1.5202162E-3,-9.49652E-2,6.549275E-2,-9.782734E-2,-3.308111E-1,-2.317308E-2,3.21113E-1,-3.2688726E-2,-4.4861466E-2,2.0272769E-2,-3.3483706E-2,-2.9263923E-1,7.7972E-2,-1.7109177E-1,-5.651405E-2,-7.262308E-2,-3.824059E-1,1.4810967E-1,1.4216833E-1,-1.7709978E-1,3.876362E-1,-8.6272955E-3,-1.703573E-2,-2.1454169E-1,-1.8786315E-3,2.3353107E-1,-1.0680994E-1,8.018444E-2,-4.4874343E-1,1.7790144E-2,2.828022E-2,1.3180916E-1,-2.4985006E-1,8.364983E-2,-1.1223962E-1,5.1705502E-2,-4.9072915E-1,-1.1967848E-1,3.791336E-2,-3.8799297E-2,2.0565088E-1,-8.176716E-2,-2.6655084E-1,7.117515E-2,5.4179436E-1,1.340563E-1,3.171277E-3,-3.264491E-3,-7.6179425E-3,5.6321267E-3,5.264818E-3,-4.2309668E-2,1.451813E-3,-2.4252612E-2,4.039255E-2,5.037397E-3,-1.7486716E-3,-4.284026E-2,2.0265024E-2,-1.8033566E-2,-5.958369E-2,-6.2192284E-4,2.4330711E-2,-2.1069186E-2,5.5749756E-3,-1.8876962E-2,1.46504715E-2,-1.6755655E-2,-1.0430295E-2,-3.4597255E-2,3.2467842E-3,1.0694853E-2,2.287532E-3,-4.6007507E-2,-4.2618606E-2,2.8634248E-2,-1.9674124E-2,-5.6196492E-2,-7.3828086E-2,1.397303E-2,2.5093272E-2,-5.084796E-2,-3.4946438E-2,2.6614824E-3,3.1860948E-2,-3.1777013E-2,5.955237E-2,2.3582777E-2,3.8935255E-2,2.6614824E-3],"categories":[],"categories_nodes":[],"categories_segments":[],"categories_sizes":[],"default_left":[0,0,0,0,0,0,0,0,0,0,0,0,0,0,0,0,0,0,0,0,0,0,0,0,0,0,0,0,0,0,0,0,0,0,0,0,0,0,0,0,0,0,0,0,0,0,0,0,0,0,0,0,0,0,0,0,0,0,0,0,0,0,0,0,0,0,0,0,0,0,0,0,0,0,0,0,0,0,0,0,0,0,0,0,0,0,0,0,0,0,0,0,0,0,0,0,0],"id":11,"left_children":[1,3,5,7,9,11,13,15,17,19,21,23,25,27,-1,29,31,33,35,37,39,41,-1,43,45,47,49,51,53,55,57,59,61,63,65,67,69,71,73,75,77,79,81,83,85,-1,-1,87,-1,89,91,93,95,-1,-1,-1,-1,-1,-1,-1,-1,-1,-1,-1,-1,-1,-1,-1,-1,-1,-1,-1,-1,-1,-1,-1,-1,-1,-1,-1,-1,-1,-1,-1,-1,-1,-1,-1,-1,-1,-1,-1,-1,-1,-1,-1,-1],"loss_changes":[1.0040573E0,8.5792685E-1,2.8973596E0,1.0810724E0,1.1661537E0,2.3611915E0,6.8667364E-1,1.1811941E0,1.5336697E0,1.055537E0,1.2570283E0,1.1438708E0,1.5267549E0,3.9818132E-1,0E0,1.8424426E0,4.568517E0,8.253804E-1,1.4617631E0,8.9516115E-1,3.8203424E-1,2.9527202E-1,0E0,1.0796499E0,7.663638E-1,1.9352144E0,7.074341E-1,5.1374006E-1,4.910749E-3,1.4663999E0,3.0870836E0,3.4640222E0,2.8196669E0,1.7160501E0,1.2808323E0,1.2981429E0,6.180551E-1,1.0598812E0,7.328427E-1,1.5977883E-1,2.4899803E-3,1.5144527E0,2.0282626E0,4.7582674E-1,2.1892817E0,0E0,0E0,1.0330344E0,0E0,5.6837106E-1,9.673902E-1,7.513523E-3,1.8164328E-1,0E0,0E0,0E0,0E0,0E0,0E0,0E0,0E0,0E0,0E0,0E0,0E0,0E0,0E0,0E0,0E0,0E0,0E0,0E0,0E0,0E0,0E0,0E0,0E0,0E0,0E0,0E0,0E0,0E0,0E0,0E0,0E0,0E0,0E0,0E0,0E0,0E0,0E0,0E0,0E0,0E0,0E0,0E0,0E0],"parents":[2147483647,0,0,1,1,2,2,3,3,4,4,5,5,6,6,7,7,8,8,9,9,10,10,11,11,12,12,13,13,15,15,16,16,17,17,18,18,19,19,20,20,21,21,23,23,24,24,25,25,26,26,27,27,28,28,29,29,30,30,31,31,32,32,33,33,34,34,35,35,36,36,37,37,38,38,39,39,40,40,41,41,42,42,43,43,44,44,47,47,49,49,50,50,51,51,52,52],"right_children":[2,4,6,8,10,12,14,16,18,20,22,24,26,28,-1,30,32,34,36,38,40,42,-1,44,46,48,50,52,54,56,58,60,62,64,66,68,70,72,74,76,78,80,82,84,86,-1,-1,88,-1,90,92,94,96,-1,-1,-1,-1,-1,-1,-1,-1,-1,-1,-1,-1,-1,-1,-1,-1,-1,-1,-1,-1,-1,-1,-1,-1,-1,-1,-1,-1,-1,-1,-1,-1,-1,-1,-1,-1,-1,-1,-1,-1,-1,-1,-1,-1],"split_conditions":[1E0,1E0,1E0,1E0,1E0,1E0,1E0,2E0,1E0,1E0,3E0,1E0,1E0,1E0,-3.2688726E-2,1E0,1E0,1E0,1E0,1E0,1E0,1E0,-7.262308E-2,1E0,1E0,1E0,1E0,1E0,1E0,1E0,1E0,1E0,1E0,1E0,1E0,1E0,1E0,1E0,1E0,2E0,3E0,1E0,1E0,2E0,2E0,3.791336E-2,-3.8799297E-2,1E0,-8.176716E-2,1E0,1E0,1E0,2E0,3.171277E-3,-3.264491E-3,-7.6179425E-3,5.6321267E-3,5.264818E-3,-4.2309668E-2,1.451813E-3,-2.4252612E-2,4.039255E-2,5.037397E-3,-1.7486716E-3,-4.284026E-2,2.0265024E-2,-1.8033566E-2,-5.958369E-2,-6.2192284E-4,2.4330711E-2,-2.1069186E-2,5.5749756E-3,-1.8876962E-2,1.46504715E-2,-1.6755655E-2,-1.0430295E-2,-3.4597255E-2,3.2467842E-3,1.0694853E-2,2.287532E-3,-4.6007507E-2,-4.2618606E-2,2.8634248E-2,-1.9674124E-2,-5.6196492E-2,-7.3828086E-2,1.397303E-2,2.5093272E-2,-5.084796E-2,-3.4946438E-2,2.6614824E-3,3.1860948E-2,-3.1777013E-2,5.955237E-2,2.3582777E-2,3.8935255E-2,2.6614824E-3],"split_indices":[16,25,2,7,14,4,22,0,26,15,0,3,3,1,0,14,14,3,2,6,5,3,0,26,22,22,5,25,23,5,5,12,2,5,24,3,1,8,19,0,0,2,2,0,0,0,0,1,0,25,25,23,0,0,0,0,0,0,0,0,0,0,0,0,0,0,0,0,0,0,0,0,0,0,0,0,0,0,0,0,0,0,0,0,0,0,0,0,0,0,0,0,0,0,0,0,0],"split_type":[0,0,0,0,0,0,0,0,0,0,0,0,0,0,0,0,0,0,0,0,0,0,0,0,0,0,0,0,0,0,0,0,0,0,0,0,0,0,0,0,0,0,0,0,0,0,0,0,0,0,0,0,0,0,0,0,0,0,0,0,0,0,0,0,0,0,0,0,0,0,0,0,0,0,0,0,0,0,0,0,0,0,0,0,0,0,0,0,0,0,0,0,0,0,0,0,0],"sum_hessian":[2.002E3,1.883E3,1.19E2,1.482E3,4.01E2,1.01E2,1.8E1,1.356E3,1.26E2,3.52E2,4.9E1,4.3E1,5.8E1,1.7E1,1E0,3.9E2,9.66E2,9.7E1,2.9E1,3.35E2,1.7E1,4.7E1,2E0,3.9E1,4E0,2.8E1,3E1,1.4E1,3E0,3.36E2,5.4E1,8.76E2,9E1,5.9E1,3.8E1,1.9E1,1E1,1.75E2,1.6E2,1.3E1,4E0,3.1E1,1.6E1,2.7E1,1.2E1,3E0,1E0,2.7E1,1E0,2.2E1,8E0,8E0,6E0,1E0,2E0,1.86E2,1.5E2,2.4E1,3E1,8.21E2,5.5E1,4.6E1,4.4E1,4.7E1,1.2E1,2.6E1,1.2E1,1.4E1,5E0,5E0,5E0,1.56E2,1.9E1,1.53E2,7E0,6E0,7E0,2E0,2E0,2.3E1,8E0,5E0,1.1E1,6E0,2.1E1,3E0,9E0,2.6E1,1E0,1.7E1,5E0,5E0,3E0,6E0,2E0,1E0,5E0],"tree_param":{"num_deleted":"0","num_feature":"27","num_nodes":"97","size_leaf_vector":"1"}},{"base_weights":[-1.3914099E-3,8.658282E-3,-4.759365E-2,2.4088766E-2,-3.7917733E-2,-1.0526495E-1,1.8256413E-2,-1.4702136E-2,5.9256338E-2,-5.3471718E-2,1.682733E-1,-1.4637277E-1,2.1717118E-1,-3.303452E-2,4.4751608E-1,3.033367E-2,-7.025884E-2,4.4645455E-2,1.9211131E-1,-6.9248974E-2,1.4847104E-1,3.07175E-1,-1.7452775E-1,-1.1107919E-1,-4.5748085E-1,5.952173E-1,-9.0339E-2,4.7237087E-2,-2.3574546E-1,6.687931E-2,2.459041E-1,5.1109236E-2,-1.3844475E-1,-3.0158188E-2,-2.4559522E-1,3.1195518E-2,2.1811144E-1,2.6474723E-1,3.0773662E-2,-1.1449742E-2,-1.2170392E-1,1.9982356E-1,-3.4607444E-2,7.41907E-2,8.382176E-2,-3.2350197E-1,5.0863303E-2,-6.2778644E-2,-3.0862886E-1,-6.802515E-1,2.1321908E-1,3.385029E-1,7.8423105E-2,-2.2589532E-1,2.7113652E-2,1.1265305E-1,-4.4450027E-1,-3.4230784E-1,1.5014115E-1,9.196687E-3,2.9213471E-2,7.6442906E-3,-1.3637252E-2,-2.568598E-2,4.4460297E-3,3.093953E-4,-3.0932156E-2,-3.781943E-2,2.6249788E-3,-4.3664887E-3,5.5951173E-3,1.38054555E-2,4.60488E-2,3.7700597E-2,1.2384451E-2,-1.08478125E-2,1.2481154E-2,-8.500436E-3,1.2481714E-2,-1.0493386E-2,-7.077935E-2,1.2012176E-2,4.454759E-2,1.0575192E-3,5.5463683E-2,-4.290117E-2,-4.6485267E-4,-3.0817112E-3,-4.7130313E-2,-4.1444294E-2,-2.4354462E-2,-4.7313534E-2,-1.0279792E-1,2.6871715E-2,8.664799E-3,4.983894E-3,4.703752E-2,-8.4698E-3,-4.1651677E-2,-7.369913E-4,2.6355097E-2,-8.086639E-2,-1.9279825E-2,-4.0192615E-2,4.0772375E-2,4.9284935E-2,5.730142E-3],"categories":[],"categories_nodes":[],"categories_segments":[],"categories_sizes":[],"default_left":[0,0,0,0,0,0,0,0,0,0,0,0,0,0,0,0,0,0,0,0,0,0,0,0,0,0,0,0,0,0,0,0,0,0,0,0,0,0,0,0,0,0,0,0,0,0,0,0,0,0,0,0,0,0,0,0,0,0,0,0,0,0,0,0,0,0,0,0,0,0,0,0,0,0,0,0,0,0,0,0,0,0,0,0,0,0,0,0,0,0,0,0,0,0,0,0,0,0,0,0,0,0,0,0,0,0,0],"id":12,"left_children":[1,3,5,7,9,11,13,15,17,19,21,23,25,27,29,31,33,35,37,39,41,43,45,47,49,51,53,55,57,-1,59,61,63,65,67,69,71,73,75,77,79,81,-1,-1,83,85,-1,87,89,91,93,95,-1,97,-1,99,101,103,105,-1,-1,-1,-1,-1,-1,-1,-1,-1,-1,-1,-1,-1,-1,-1,-1,-1,-1,-1,-1,-1,-1,-1,-1,-1,-1,-1,-1,-1,-1,-1,-1,-1,-1,-1,-1,-1,-1,-1,-1,-1,-1,-1,-1,-1,-1,-1,-1],"loss_changes":[9.304416E-1,1.183878E0,1.3614833E0,1.688364E0,1.3239055E0,2.5634258E0,3.7136614E0,1.4758334E0,1.2512155E0,1.2273725E0,1.4344646E0,1.8158028E0,2.6113381E0,2.4681976E0,6.385586E-1,1.1501843E0,1.8488047E0,1.3603964E0,7.418628E-1,1.0749152E0,7.8024614E-1,1.9768869E0,1.080504E0,1.4500555E0,2.6850507E0,2.197609E-1,6.982522E-1,3.5563288E0,1.819597E0,0E0,5.141598E-2,1.3925586E0,7.911337E-1,2.0060375E0,1.7762015E0,1.0124471E0,7.5139236E-1,6.4928246E-1,2.885331E-1,1.7145299E0,1.7538786E0,4.555409E-1,0E0,0E0,5.114184E-1,2.6714283E-1,0E0,1.617609E0,1.0566974E-1,4.498868E-1,1.1838466E-2,2.049576E-1,0E0,2.3387426E-1,0E0,1.7587302E0,1.0356803E0,1.6842067E0,2.8992838E-1,0E0,0E0,0E0,0E0,0E0,0E0,0E0,0E0,0E0,0E0,0E0,0E0,0E0,0E0,0E0,0E0,0E0,0E0,0E0,0E0,0E0,0E0,0E0,0E0,0E0,0E0,0E0,0E0,0E0,0E0,0E0,0E0,0E0,0E0,0E0,0E0,0E0,0E0,0E0,0E0,0E0,0E0,0E0,0E0,0E0,0E0,0E0,0E0],"parents":[2147483647,0,0,1,1,2,2,3,3,4,4,5,5,6,6,7,7,8,8,9,9,10,10,11,11,12,12,13,13,14,14,15,15,16,16,17,17,18,18,19,19,20,20,21,21,22,22,23,23,24,24,25,25,26,26,27,27,28,28,30,30,31,31,32,32,33,33,34,34,35,35,36,36,37,37,38,38,39,39,40,40,41,41,44,44,45,45,47,47,48,48,49,49,50,50,51,51,53,53,55,55,56,56,57,57,58,58],"right_children":[2,4,6,8,10,12,14,16,18,20,22,24,26,28,30,32,34,36,38,40,42,44,46,48,50,52,54,56,58,-1,60,62,64,66,68,70,72,74,76,78,80,82,-1,-1,84,86,-1,88,90,92,94,96,-1,98,-1,100,102,104,106,-1,-1,-1,-1,-1,-1,-1,-1,-1,-1,-1,-1,-1,-1,-1,-1,-1,-1,-1,-1,-1,-1,-1,-1,-1,-1,-1,-1,-1,-1,-1,-1,-1,-1,-1,-1,-1,-1,-1,-1,-1,-1,-1,-1,-1,-1,-1,-1],"split_conditions":[1E0,1E0,1E0,1E0,1E0,1E0,1E0,1E0,1E0,3E0,1E0,1E0,1E0,1E0,1E0,1E0,1E0,1E0,1E0,1E0,1E0,1E0,1E0,1E0,3E0,1E0,1E0,1E0,1E0,6.687931E-2,2E0,1E0,1E0,1E0,1E0,2E0,1E0,1E0,2E0,1E0,1E0,1E0,-3.4607444E-2,7.41907E-2,1E0,3E0,5.0863303E-2,1E0,1E0,1E0,1E0,2E0,7.8423105E-2,1E0,2.7113652E-2,1E0,1E0,1E0,2E0,9.196687E-3,2.9213471E-2,7.6442906E-3,-1.3637252E-2,-2.568598E-2,4.4460297E-3,3.093953E-4,-3.0932156E-2,-3.781943E-2,2.6249788E-3,-4.3664887E-3,5.5951173E-3,1.38054555E-2,4.60488E-2,3.7700597E-2,1.2384451E-2,-1.08478125E-2,1.2481154E-2,-8.500436E-3,1.2481714E-2,-1.0493386E-2,-7.077935E-2,1.2012176E-2,4.454759E-2,1.0575192E-3,5.5463683E-2,-4.290117E-2,-4.6485267E-4,-3.0817112E-3,-4.7130313E-2,-4.1444294E-2,-2.4354462E-2,-4.7313534E-2,-1.0279792E-1,2.6871715E-2,8.664799E-3,4.983894E-3,4.703752E-2,-8.4698E-3,-4.1651677E-2,-7.369913E-4,2.6355097E-2,-8.086639E-2,-1.9279825E-2,-4.0192615E-2,4.0772375E-2,4.9284935E-2,5.730142E-3],"split_indices":[22,24,3,6,8,8,14,5,20,0,5,14,1,2,6,7,17,11,25,6,19,4,4,13,0,6,5,8,5,0,0,20,3,11,25,0,4,1,0,1,15,17,0,0,2,0,0,16,4,2,1,0,0,2,0,1,1,12,0,0,0,0,0,0,0,0,0,0,0,0,0,0,0,0,0,0,0,0,0,0,0,0,0,0,0,0,0,0,0,0,0,0,0,0,0,0,0,0,0,0,0,0,0,0,0,0,0],"split_type":[0,0,0,0,0,0,0,0,0,0,0,0,0,0,0,0,0,0,0,0,0,0,0,0,0,0,0,0,0,0,0,0,0,0,0,0,0,0,0,0,0,0,0,0,0,0,0,0,0,0,0,0,0,0,0,0,0,0,0,0,0,0,0,0,0,0,0,0,0,0,0,0,0,0,0,0,0,0,0,0,0,0,0,0,0,0,0,0,0,0,0,0,0,0,0,0,0,0,0,0,0,0,0,0,0,0,0],"sum_hessian":[2.002E3,1.645E3,3.57E2,1.236E3,4.09E2,1.9E2,1.67E2,5.88E2,6.48E2,3.81E2,2.8E1,1.69E2,2.1E1,1.5E2,1.7E1,3.25E2,2.63E2,5.85E2,6.3E1,3.54E2,2.7E1,2E1,8E0,1.53E2,1.6E1,9E0,1.2E1,1.08E2,4.2E1,7E0,1E1,2.9E2,3.5E1,2.15E2,4.8E1,5.44E2,4.1E1,4.3E1,2E1,1.69E2,1.85E2,2.5E1,2E0,6E0,1.4E1,7E0,1E0,1.24E2,2.9E1,1.2E1,4E0,5E0,4E0,9E0,3E0,9.6E1,1.2E1,3.3E1,9E0,3E0,7E0,2.56E2,3.4E1,2.1E1,1.4E1,1.93E2,2.2E1,3.2E1,1.6E1,1.35E2,4.09E2,3.2E1,9E0,2.3E1,2E1,8E0,1.2E1,1.1E2,5.9E1,1.81E2,4E0,2E1,5E0,1.3E1,1E0,5E0,2E0,1.16E2,8E0,9E0,2E1,9E0,3E0,2E0,2E0,2E0,3E0,6E0,3E0,5.4E1,4.2E1,4E0,8E0,3.1E1,2E0,1E0,8E0],"tree_param":{"num_deleted":"0","num_feature":"27","num_nodes":"107","size_leaf_vector":"1"}},{"base_weights":[-1.2194297E-3,3.8194477E-3,-8.031964E-2,1.289306E-2,-3.154221E-2,-1.406095E-1,2.4756902E-1,-2.4394302E-2,4.743553E-2,3.0296797E-2,-9.451114E-2,-2.9451424E-1,-2.344987E-2,2.9320928E-1,-2.8697778E-2,-2.780765E-2,3.8756657E-1,9.5192924E-2,1.099833E-2,8.10125E-2,-1.3112739E-1,-7.137254E-2,-4.058417E-1,-3.4060106E-1,1.3308325E-1,-1.0687822E-1,2.2839852E-1,3.5397437E-1,-7.962167E-3,-3.043933E-2,4.4889915E-1,6.54377E-2,-9.736951E-3,1.2944734E-1,-2.242855E-1,-5.8208825E-3,3.048763E-1,9.3164675E-2,-5.414483E-2,-6.0410336E-2,-1.148174E-1,-2.2453886E-1,-2.1293929E-2,-2.5771657E-2,-5.912986E-2,-4.334222E-1,-1.1447851E-1,3.504665E-2,-3.6822487E-2,-1.9376612E-1,2.1660605E-1,3.776484E-1,3.8774353E-3,4.9545395E-1,1.2150431E-1,3.5373808E-3,-3.419876E-3,-6.7898654E-3,1.3877964E-4,8.118701E-3,5.4440755E-2,1.5099338E-2,-2.4444982E-2,9.050897E-3,-6.0807284E-2,3.4757336E-3,-1.2788656E-2,-4.586983E-3,4.831162E-2,4.1774507E-3,2.3440478E-2,-3.2288946E-2,5.0686504E-4,-1.0864663E-2,-5.623386E-2,2.4811932E-4,-5.3683516E-2,-1.6827539E-2,-4.980861E-2,-6.826377E-2,1.2423301E-2,-6.7892843E-3,-3.158676E-2,4.0953122E-2,1.9734064E-3,4.8101727E-2,1.0571639E-3,3.0491937E-2,-2.9813385E-2,5.4427978E-2,2.1637566E-2,3.660629E-2,1.9734064E-3],"categories":[],"categories_nodes":[],"categories_segments":[],"categories_sizes":[],"default_left":[0,0,0,0,0,0,0,0,0,0,0,0,0,0,0,0,0,0,0,0,0,0,0,0,0,0,0,0,0,0,0,0,0,0,0,0,0,0,0,0,0,0,0,0,0,0,0,0,0,0,0,0,0,0,0,0,0,0,0,0,0,0,0,0,0,0,0,0,0,0,0,0,0,0,0,0,0,0,0,0,0,0,0,0,0,0,0,0,0,0,0,0,0],"id":13,"left_children":[1,3,5,7,9,11,13,15,17,19,21,23,25,27,-1,29,31,33,35,37,39,41,43,45,47,49,51,53,55,57,59,-1,-1,61,63,65,67,69,-1,71,-1,73,75,-1,-1,77,79,-1,-1,81,83,85,87,89,91,-1,-1,-1,-1,-1,-1,-1,-1,-1,-1,-1,-1,-1,-1,-1,-1,-1,-1,-1,-1,-1,-1,-1,-1,-1,-1,-1,-1,-1,-1,-1,-1,-1,-1,-1,-1,-1,-1],"loss_changes":[7.98655E-1,6.0490316E-1,2.407014E0,1.9331534E0,1.5020286E0,1.8322988E0,5.4768467E-1,1.0260291E0,1.3545266E0,1.6070375E0,1.3469508E0,9.124191E-1,1.2640773E0,3.3223116E-1,0E0,9.131692E-1,8.4003246E-1,3.717008E0,2.1914332E0,1.1775177E0,3.310998E0,1.3682127E0,2.0473313E-1,7.8994036E-1,6.7393035E-1,1.30678E0,5.01182E-1,4.331466E-1,5.757694E-3,8.513412E-1,9.627956E-2,0E0,0E0,2.493991E0,4.0419025E0,2.0847921E0,1.5225675E0,1.0571858E0,0E0,7.750457E-1,0E0,1.661432E0,1.6682913E0,0E0,0E0,3.9625645E-1,1.847946E0,0E0,0E0,5.318502E-1,3.717339E-1,3.3641362E-1,7.273332E-1,4.867077E-3,1.6699758E-1,0E0,0E0,0E0,0E0,0E0,0E0,0E0,0E0,0E0,0E0,0E0,0E0,0E0,0E0,0E0,0E0,0E0,0E0,0E0,0E0,0E0,0E0,0E0,0E0,0E0,0E0,0E0,0E0,0E0,0E0,0E0,0E0,0E0,0E0,0E0,0E0,0E0,0E0],"parents":[2147483647,0,0,1,1,2,2,3,3,4,4,5,5,6,6,7,7,8,8,9,9,10,10,11,11,12,12,13,13,15,15,16,16,17,17,18,18,19,19,20,20,21,21,22,22,23,23,24,24,25,25,26,26,27,27,28,28,29,29,30,30,33,33,34,34,35,35,36,36,37,37,39,39,41,41,42,42,45,45,46,46,49,49,50,50,51,51,52,52,53,53,54,54],"right_children":[2,4,6,8,10,12,14,16,18,20,22,24,26,28,-1,30,32,34,36,38,40,42,44,46,48,50,52,54,56,58,60,-1,-1,62,64,66,68,70,-1,72,-1,74,76,-1,-1,78,80,-1,-1,82,84,86,88,90,92,-1,-1,-1,-1,-1,-1,-1,-1,-1,-1,-1,-1,-1,-1,-1,-1,-1,-1,-1,-1,-1,-1,-1,-1,-1,-1,-1,-1,-1,-1,-1,-1,-1,-1,-1,-1,-1,-1],"split_conditions":[1E0,1E0,1E0,1E0,1E0,1E0,1E0,1E0,1E0,1E0,1E0,1E0,1E0,1E0,-2.8697778E-2,1E0,1E0,1E0,1E0,1E0,1E0,2E0,1E0,1E0,1E0,1E0,1E0,1E0,1E0,1E0,1E0,6.54377E-2,-9.736951E-3,1E0,1E0,1E0,2E0,1E0,-5.414483E-2,2E0,-1.148174E-1,1E0,1E0,-2.5771657E-2,-5.912986E-2,2E0,2E0,3.504665E-2,-3.6822487E-2,1E0,1E0,1E0,1E0,1E0,2E0,3.5373808E-3,-3.419876E-3,-6.7898654E-3,1.3877964E-4,8.118701E-3,5.4440755E-2,1.5099338E-2,-2.4444982E-2,9.050897E-3,-6.0807284E-2,3.4757336E-3,-1.2788656E-2,-4.586983E-3,4.831162E-2,4.1774507E-3,2.3440478E-2,-3.2288946E-2,5.0686504E-4,-1.0864663E-2,-5.623386E-2,2.4811932E-4,-5.3683516E-2,-1.6827539E-2,-4.980861E-2,-6.826377E-2,1.2423301E-2,-6.7892843E-3,-3.158676E-2,4.0953122E-2,1.9734064E-3,4.8101727E-2,1.0571639E-3,3.0491937E-2,-2.9813385E-2,5.4427978E-2,2.1637566E-2,3.660629E-2,1.9734064E-3],"split_indices":[16,24,2,6,6,4,22,9,4,3,12,3,5,1,0,18,25,7,7,18,13,0,4,26,22,25,25,25,23,4,25,0,0,19,1,22,0,2,0,0,0,17,19,0,0,0,0,0,0,3,3,22,3,23,0,0,0,0,0,0,0,0,0,0,0,0,0,0,0,0,0,0,0,0,0,0,0,0,0,0,0,0,0,0,0,0,0,0,0,0,0,0,0],"split_type":[0,0,0,0,0,0,0,0,0,0,0,0,0,0,0,0,0,0,0,0,0,0,0,0,0,0,0,0,0,0,0,0,0,0,0,0,0,0,0,0,0,0,0,0,0,0,0,0,0,0,0,0,0,0,0,0,0,0,0,0,0,0,0,0,0,0,0,0,0,0,0,0,0,0,0,0,0,0,0,0,0,0,0,0,0,0,0,0,0,0,0,0,0],"sum_hessian":[2.002E3,1.883E3,1.19E2,1.499E3,3.84E2,1.01E2,1.8E1,7.21E2,7.78E2,1.94E2,1.9E2,4.3E1,5.8E1,1.7E1,1E0,7.16E2,5E0,3.36E2,4.42E2,1.48E2,4.6E1,1.78E2,1.2E1,3.9E1,4E0,4.4E1,1.4E1,1.4E1,3E0,7.13E2,3E0,3E0,2E0,3.04E2,3.2E1,4.19E2,2.3E1,1.46E2,2E0,4.4E1,2E0,4.3E1,1.35E2,8E0,4E0,2.7E1,1.2E1,3E0,1E0,3.5E1,9E0,8E0,6E0,8E0,6E0,1E0,2E0,3.27E2,3.86E2,1E0,2E0,2.88E2,1.6E1,1.8E1,1.4E1,3.15E2,1.04E2,8E0,1.5E1,1.08E2,3.8E1,8E0,3.6E1,3.3E1,1E1,1.3E2,5E0,6E0,2.1E1,3E0,9E0,1.8E1,1.7E1,4E0,5E0,6E0,2E0,3E0,3E0,6E0,2E0,1E0,5E0],"tree_param":{"num_deleted":"0","num_feature":"27","num_nodes":"93","size_leaf_vector":"1"}},{"base_weights":[-1.2360109E-3,3.281636E-3,-7.215276E-2,-5.4220483E-3,3.538184E-2,-1.2723358E-1,2.2734177E-1,-3.3018712E-2,1.9968184E-2,5.372474E-2,-9.482668E-2,-2.6788682E-1,-2.0183148E-2,2.7026397E-1,-2.726289E-2,-3.6762245E-2,5.029206E-1,3.1696916E-2,-1.0015827E-1,6.5184005E-2,-1.6316622E-1,-5.555206E-2,-6.916118E-2,-3.0960298E-1,1.1941981E-1,-9.608938E-2,2.088811E-1,3.2621986E-1,-7.1365833E-3,-3.0912224E-2,-2.5897065E-1,6.0529865E-2,4.6704295E-3,-3.0993419E-2,5.9267152E-2,7.4155875E-2,-1.9477372E-1,8.172905E-2,-6.6714704E-2,-2.3464797E-1,6.961594E-2,3.697142E-3,-1.638122E-1,-3.9245993E-1,-1.0732623E-1,3.2418158E-2,-3.498136E-2,-1.754556E-1,1.9923797E-1,3.4534556E-1,3.586633E-3,4.543602E-2,1.148651E-1,3.3605099E-3,-3.1918844E-3,-2.3643633E-3,-1.8466575E-2,8.775844E-3,-5.4512978E-2,2.8724471E-5,-2.6998917E-2,3.178443E-3,3.1167507E-2,2.2099571E-2,-1.0333694E-2,-1.4331951E-2,-3.40785E-2,1.1477764E-2,2.3068392E-3,-2.8290087E-2,7.118144E-3,-9.997702E-3,-3.2315407E-2,3.00045E-3,8.602206E-3,-2.5327122E-2,1.3201328E-2,6.961886E-3,-6.0337227E-2,-1.5385175E-2,-4.5054164E-2,-6.314399E-2,1.1305185E-2,-6.146096E-3,-2.8603574E-2,3.7676867E-2,1.8089375E-3,4.3978706E-2,9.866874E-4,2.820505E-2,-2.7577389E-2,3.4775972E-2,1.8089375E-3],"categories":[],"categories_nodes":[],"categories_segments":[],"categories_sizes":[],"default_left":[0,0,0,0,0,0,0,0,0,0,0,0,0,0,0,0,0,0,0,0,0,0,0,0,0,0,0,0,0,0,0,0,0,0,0,0,0,0,0,0,0,0,0,0,0,0,0,0,0,0,0,0,0,0,0,0,0,0,0,0,0,0,0,0,0,0,0,0,0,0,0,0,0,0,0,0,0,0,0,0,0,0,0,0,0,0,0,0,0,0,0,0,0],"id":14,"left_children":[1,3,5,7,9,11,13,15,17,19,21,23,25,27,-1,29,31,33,35,37,39,41,-1,43,45,47,49,51,53,55,57,-1,-1,59,61,63,65,67,69,71,73,75,77,79,81,-1,-1,83,85,87,89,-1,91,-1,-1,-1,-1,-1,-1,-1,-1,-1,-1,-1,-1,-1,-1,-1,-1,-1,-1,-1,-1,-1,-1,-1,-1,-1,-1,-1,-1,-1,-1,-1,-1,-1,-1,-1,-1,-1,-1,-1,-1],"loss_changes":[6.419516E-1,5.2656263E-1,2.008494E0,1.0397761E0,9.6523225E-1,1.5304064E0,4.814188E-1,1.4449728E0,1.0922785E0,8.879858E-1,1.133505E0,7.478781E-1,1.045928E0,2.8172755E-1,0E0,9.1104066E-1,2.0526254E-1,1.22035E0,1.1524477E0,7.386949E-1,3.1584945E-1,3.0849338E-1,0E0,6.2828016E-1,5.9380835E-1,1.0897133E0,4.1899234E-1,3.5405588E-1,5.11132E-3,7.6675844E-1,1.8337945E0,0E0,0E0,1.6148819E0,3.3891535E0,6.7441237E-1,2.8923917E-1,5.770093E-1,1.1529644E0,1.3456076E-1,6.683022E-4,1.0885773E0,1.7863249E0,3.1872892E-1,1.5729264E0,0E0,0E0,4.3621945E-1,3.1477886E-1,2.8080857E-1,6.2232476E-1,0E0,1.5147907E-1,0E0,0E0,0E0,0E0,0E0,0E0,0E0,0E0,0E0,0E0,0E0,0E0,0E0,0E0,0E0,0E0,0E0,0E0,0E0,0E0,0E0,0E0,0E0,0E0,0E0,0E0,0E0,0E0,0E0,0E0,0E0,0E0,0E0,0E0,0E0,0E0,0E0,0E0,0E0,0E0],"parents":[2147483647,0,0,1,1,2,2,3,3,4,4,5,5,6,6,7,7,8,8,9,9,10,10,11,11,12,12,13,13,15,15,16,16,17,17,18,18,19,19,20,20,21,21,23,23,24,24,25,25,26,26,27,27,28,28,29,29,30,30,33,33,34,34,35,35,36,36,37,37,38,38,39,39,40,40,41,41,42,42,43,43,44,44,47,47,48,48,49,49,50,50,52,52],"right_children":[2,4,6,8,10,12,14,16,18,20,22,24,26,28,-1,30,32,34,36,38,40,42,-1,44,46,48,50,52,54,56,58,-1,-1,60,62,64,66,68,70,72,74,76,78,80,82,-1,-1,84,86,88,90,-1,92,-1,-1,-1,-1,-1,-1,-1,-1,-1,-1,-1,-1,-1,-1,-1,-1,-1,-1,-1,-1,-1,-1,-1,-1,-1,-1,-1,-1,-1,-1,-1,-1,-1,-1,-1,-1,-1,-1,-1,-1],"split_conditions":[1E0,1E0,1E0,1E0,1E0,1E0,1E0,1E0,1E0,1E0,3E0,1E0,1E0,1E0,-2.726289E-2,1E0,1E0,2E0,2E0,1E0,1E0,2E0,-6.916118E-2,1E0,1E0,1E0,1E0,1E0,1E0,1E0,2E0,6.0529865E-2,4.6704295E-3,1E0,1E0,1E0,1E0,1E0,2E0,2E0,3E0,1E0,1E0,2E0,2E0,3.2418158E-2,-3.498136E-2,1E0,1E0,1E0,1E0,4.543602E-2,2E0,3.3605099E-3,-3.1918844E-3,-2.3643633E-3,-1.8466575E-2,8.775844E-3,-5.4512978E-2,2.8724471E-5,-2.6998917E-2,3.178443E-3,3.1167507E-2,2.2099571E-2,-1.0333694E-2,-1.4331951E-2,-3.40785E-2,1.1477764E-2,2.3068392E-3,-2.8290087E-2,7.118144E-3,-9.997702E-3,-3.2315407E-2,3.00045E-3,8.602206E-3,-2.5327122E-2,1.3201328E-2,6.961886E-3,-6.0337227E-2,-1.5385175E-2,-4.5054164E-2,-6.314399E-2,1.1305185E-2,-6.146096E-3,-2.8603574E-2,3.7676867E-2,1.8089375E-3,4.3978706E-2,9.866874E-4,2.820505E-2,-2.7577389E-2,3.4775972E-2,1.8089375E-3],"split_indices":[16,25,2,1,14,4,22,9,12,15,0,3,5,1,0,19,24,0,0,20,5,0,0,26,22,25,25,25,23,15,0,0,0,11,14,23,24,1,0,0,0,5,5,0,0,0,0,3,3,22,3,0,0,0,0,0,0,0,0,0,0,0,0,0,0,0,0,0,0,0,0,0,0,0,0,0,0,0,0,0,0,0,0,0,0,0,0,0,0,0,0,0,0],"split_type":[0,0,0,0,0,0,0,0,0,0,0,0,0,0,0,0,0,0,0,0,0,0,0,0,0,0,0,0,0,0,0,0,0,0,0,0,0,0,0,0,0,0,0,0,0,0,0,0,0,0,0,0,0,0,0,0,0,0,0,0,0,0,0,0,0,0,0,0,0,0,0,0,0,0,0,0,0,0,0,0,0,0,0,0,0,0,0,0,0,0,0,0,0],"sum_hessian":[2.002E3,1.883E3,1.19E2,1.482E3,4.01E2,1.01E2,1.8E1,7.1E2,7.72E2,3.52E2,4.9E1,4.3E1,5.8E1,1.7E1,1E0,7.06E2,4E0,7.04E2,6.8E1,3.35E2,1.7E1,4.7E1,2E0,3.9E1,4E0,4.4E1,1.4E1,1.4E1,3E0,6.89E2,1.7E1,3E0,1E0,2.15E2,4.89E2,2.4E1,4.4E1,2.98E2,3.7E1,1.3E1,4E0,3.1E1,1.6E1,2.7E1,1.2E1,3E0,1E0,3.5E1,9E0,8E0,6E0,8E0,6E0,1E0,2E0,6.59E2,3E1,8E0,9E0,1.91E2,2.4E1,4.42E2,4.7E1,1.3E1,1.1E1,3.4E1,1E1,1.9E2,1.08E2,1.4E1,2.3E1,6E0,7E0,2E0,2E0,1E1,2.1E1,1.1E1,5E0,6E0,2.1E1,3E0,9E0,1.8E1,1.7E1,4E0,5E0,6E0,2E0,3E0,3E0,1E0,5E0],"tree_param":{"num_deleted":"0","num_feature":"27","num_nodes":"93","size_leaf_vector":"1"}},{"base_weights":[-1.2187868E-3,6.8746787E-3,-3.8427237E-2,1.3359836E-2,-7.21436E-2,-8.782853E-2,1.7966062E-2,2.7226677E-2,-2.7949715E-2,-1.5751037E-1,1.2744638E-1,-1.251598E-1,2.0463262E-1,-2.736601E-2,3.9725366E-1,3.3759482E-2,-1.4022093E-1,-4.252966E-2,1.5149274E-1,-8.660889E-2,-3.9424497E-1,2.9076478E-1,-4.547195E-3,-9.189757E-2,-4.191142E-1,5.49626E-1,-7.648789E-2,8.718043E-3,-4.1108274E-1,6.0557015E-2,2.0963682E-1,1.8873549E-3,6.0998347E-2,-2.734163E-1,2.6624585E-2,-8.631114E-2,2.1473246E-2,2.795729E-1,-1.641935E-1,1.92388E-2,-1.3995096E-1,-5.2062714E-1,-1.25819845E-2,3.162382E-1,1.6638088E-1,6.4563796E-2,-1.996038E-2,-4.7664925E-2,-2.73137E-1,-6.189029E-1,1.8415928E-1,3.1864166E-1,7.1688205E-2,-2.0083824E-1,2.5350993E-2,1.0472608E-1,-2.0806098E-1,-7.342478E-1,-1.8587075E-2,7.551813E-3,2.5049156E-2,5.924612E-3,-6.690167E-3,7.2642574E-3,-9.726041E-3,-1.6461574E-2,-7.762653E-2,-1.7914692E-2,2.5031079E-2,-2.6875405E-2,-2.3410968E-3,-3.932076E-3,1.9369112E-2,6.6258594E-2,8.21953E-3,-3.0288348E-2,4.7266316E-2,1.20159555E-2,-7.272597E-2,-2.6944926E-2,1.7529154E-2,-7.4461736E-2,-3.7148368E-2,-2.4217153E-2,2.977314E-2,3.7108924E-2,1.5425873E-2,4.2393222E-2,-1.4663077E-2,-1.3958573E-2,1.1828053E-2,-1.010219E-2,1.3244857E-2,-3.743149E-2,-2.1195052E-2,-3.288558E-2,-8.2053535E-2,2.5690524E-2,5.0026895E-3,5.030966E-3,4.4023026E-2,-6.8300725E-3,-3.8256932E-2,8.7316694E-5,2.3512572E-2,-3.0300861E-2,1.355671E-2,-1.1021217E-2,-1.1135341E-1],"categories":[],"categories_nodes":[],"categories_segments":[],"categories_sizes":[],"default_left":[0,0,0,0,0,0,0,0,0,0,0,0,0,0,0,0,0,0,0,0,0,0,0,0,0,0,0,0,0,0,0,0,0,0,0,0,0,0,0,0,0,0,0,0,0,0,0,0,0,0,0,0,0,0,0,0,0,0,0,0,0,0,0,0,0,0,0,0,0,0,0,0,0,0,0,0,0,0,0,0,0,0,0,0,0,0,0,0,0,0,0,0,0,0,0,0,0,0,0,0,0,0,0,0,0,0,0,0,0],"id":15,"left_children":[1,3,5,7,9,11,13,15,17,19,21,23,25,27,29,31,33,35,37,39,41,43,45,47,49,51,53,55,57,-1,59,61,63,65,67,69,71,73,75,77,79,81,83,85,87,89,-1,91,93,95,97,99,-1,101,-1,103,105,107,-1,-1,-1,-1,-1,-1,-1,-1,-1,-1,-1,-1,-1,-1,-1,-1,-1,-1,-1,-1,-1,-1,-1,-1,-1,-1,-1,-1,-1,-1,-1,-1,-1,-1,-1,-1,-1,-1,-1,-1,-1,-1,-1,-1,-1,-1,-1,-1,-1,-1,-1],"loss_changes":[6.034582E-1,8.444499E-1,9.989309E-1,8.726127E-1,2.1498682E0,2.1109397E0,2.8994453E0,1.2517827E0,1.0084711E0,1.4429204E0,8.204874E-1,1.6236732E0,2.1757035E0,2.0943382E0,5.7655644E-1,9.531251E-1,9.628708E-1,9.966138E-1,1.2184653E0,3.9227587E-1,9.581578E-1,1.2481213E-3,3.0945936E-1,1.2215525E0,2.1629398E0,1.5790677E-1,5.8437395E-1,2.9147308E0,8.096733E-1,0E0,4.1356564E-2,2.00441E0,1.0980031E0,1.1852607E0,9.6540725E-1,2.4150786E0,1.5257392E0,1.5331006E0,9.3809265E-1,1.8954796E0,1.9251072E0,2.2448683E-1,4.9957034E-1,5.825782E-2,4.6524438E-1,2.0293646E-1,0E0,1.2146692E0,1.0638523E-1,4.9043941E-1,3.5935774E-2,1.7360884E-1,0E0,2.1473211E-1,0E0,1.3134058E0,1.4440252E0,1.0607157E0,0E0,0E0,0E0,0E0,0E0,0E0,0E0,0E0,0E0,0E0,0E0,0E0,0E0,0E0,0E0,0E0,0E0,0E0,0E0,0E0,0E0,0E0,0E0,0E0,0E0,0E0,0E0,0E0,0E0,0E0,0E0,0E0,0E0,0E0,0E0,0E0,0E0,0E0,0E0,0E0,0E0,0E0,0E0,0E0,0E0,0E0,0E0,0E0,0E0,0E0,0E0],"parents":[2147483647,0,0,1,1,2,2,3,3,4,4,5,5,6,6,7,7,8,8,9,9,10,10,11,11,12,12,13,13,14,14,15,15,16,16,17,17,18,18,19,19,20,20,21,21,22,22,23,23,24,24,25,25,26,26,27,27,28,28,30,30,31,31,32,32,33,33,34,34,35,35,36,36,37,37,38,38,39,39,40,40,41,41,42,42,43,43,44,44,45,45,47,47,48,48,49,49,50,50,51,51,53,53,55,55,56,56,57,57],"right_children":[2,4,6,8,10,12,14,16,18,20,22,24,26,28,30,32,34,36,38,40,42,44,46,48,50,52,54,56,58,-1,60,62,64,66,68,70,72,74,76,78,80,82,84,86,88,90,-1,92,94,96,98,100,-1,102,-1,104,106,108,-1,-1,-1,-1,-1,-1,-1,-1,-1,-1,-1,-1,-1,-1,-1,-1,-1,-1,-1,-1,-1,-1,-1,-1,-1,-1,-1,-1,-1,-1,-1,-1,-1,-1,-1,-1,-1,-1,-1,-1,-1,-1,-1,-1,-1,-1,-1,-1,-1,-1,-1],"split_conditions":[1E0,1E0,1E0,1E0,1E0,1E0,1E0,1E0,1E0,1E0,1E0,1E0,1E0,1E0,1E0,1E0,1E0,1E0,1E0,2E0,1E0,3E0,1E0,1E0,3E0,1E0,1E0,1E0,1E0,6.0557015E-2,2E0,1E0,1E0,1E0,1E0,2E0,1E0,1E0,1E0,1E0,1E0,1E0,1E0,1E0,1E0,1E0,-1.996038E-2,1E0,1E0,1E0,1E0,2E0,7.1688205E-2,1E0,2.5350993E-2,1E0,1E0,1E0,-1.8587075E-2,7.551813E-3,2.5049156E-2,5.924612E-3,-6.690167E-3,7.2642574E-3,-9.726041E-3,-1.6461574E-2,-7.762653E-2,-1.7914692E-2,2.5031079E-2,-2.6875405E-2,-2.3410968E-3,-3.932076E-3,1.9369112E-2,6.6258594E-2,8.21953E-3,-3.0288348E-2,4.7266316E-2,1.20159555E-2,-7.272597E-2,-2.6944926E-2,1.7529154E-2,-7.4461736E-2,-3.7148368E-2,-2.4217153E-2,2.977314E-2,3.7108924E-2,1.5425873E-2,4.2393222E-2,-1.4663077E-2,-1.3958573E-2,1.1828053E-2,-1.010219E-2,1.3244857E-2,-3.743149E-2,-2.1195052E-2,-3.288558E-2,-8.2053535E-2,2.5690524E-2,5.0026895E-3,5.030966E-3,4.4023026E-2,-6.8300725E-3,-3.8256932E-2,8.7316694E-5,2.3512572E-2,-3.0300861E-2,1.355671E-2,-1.1021217E-2,-1.1135341E-1],"split_indices":[22,7,3,24,2,8,14,15,8,26,3,14,1,8,6,6,1,5,5,0,3,0,26,13,0,6,5,2,1,0,0,5,12,26,26,0,4,4,4,25,25,1,4,26,25,4,0,2,4,5,1,0,0,2,0,1,5,4,0,0,0,0,0,0,0,0,0,0,0,0,0,0,0,0,0,0,0,0,0,0,0,0,0,0,0,0,0,0,0,0,0,0,0,0,0,0,0,0,0,0,0,0,0,0,0,0,0,0,0],"split_type":[0,0,0,0,0,0,0,0,0,0,0,0,0,0,0,0,0,0,0,0,0,0,0,0,0,0,0,0,0,0,0,0,0,0,0,0,0,0,0,0,0,0,0,0,0,0,0,0,0,0,0,0,0,0,0,0,0,0,0,0,0,0,0,0,0,0,0,0,0,0,0,0,0,0,0,0,0,0,0,0,0,0,0,0,0,0,0,0,0,0,0,0,0,0,0,0,0,0,0,0,0,0,0,0,0,0,0,0,0],"sum_hessian":[2.002E3,1.645E3,3.57E2,1.521E3,1.24E2,1.9E2,1.67E2,1.139E3,3.82E2,8.7E1,3.7E1,1.69E2,2.1E1,1.5E2,1.7E1,1.097E3,4.2E1,3.54E2,2.8E1,6.8E1,1.9E1,1.6E1,2.1E1,1.53E2,1.6E1,9E0,1.2E1,1.38E2,1.2E1,7E0,1E1,5.06E2,5.91E2,2.3E1,1.9E1,2.1E2,1.44E2,2E1,8E0,2.3E1,4.5E1,1.4E1,5E0,1.2E1,4E0,1.6E1,5E0,1.24E2,2.9E1,1.2E1,4E0,5E0,4E0,9E0,3E0,9.6E1,4.2E1,4E0,8E0,3E0,7E0,2.76E2,2.3E2,5.51E2,4E1,2E1,3E0,1E1,9E0,5.3E1,1.57E2,1.07E2,3.7E1,6E0,1.4E1,7E0,1E0,2.1E1,2E0,3.2E1,1.3E1,4E0,1E1,3E0,2E0,8E0,4E0,2E0,2E0,3E0,1.3E1,9.6E1,2.8E1,9E0,2E1,6E0,6E0,2E0,2E0,2E0,3E0,6E0,3E0,5.4E1,4.2E1,3.3E1,9E0,2E0,2E0],"tree_param":{"num_deleted":"0","num_feature":"27","num_nodes":"109","size_leaf_vector":"1"}},{"base_weights":[-1.2018386E-3,3.0109594E-3,-6.733275E-2,1.0199501E-2,-2.5004167E-2,-1.1682178E-1,2.0188902E-1,-2.0886289E-2,3.8997628E-2,2.9841952E-2,-8.086798E-2,-2.4193293E-1,-2.153852E-2,2.426184E-1,-2.6561989E-2,-2.3254702E-2,4.100576E-1,8.11364E-2,6.853693E-3,7.6529406E-2,-1.1880214E-1,-6.0460232E-2,-3.5564643E-1,-2.7999642E-1,1.10961676E-1,1.02573924E-1,-1.3694891E-1,2.9365608E-1,-9.427547E-3,-2.7801236E-2,2.0768157E-1,7.5347545E-3,4.965118E-2,1.11297905E-1,-2.0008771E-1,-8.740454E-3,2.794657E-1,8.7486096E-2,-4.8585843E-2,-5.2884776E-2,-1.0679618E0,-1.8789576E-1,-1.8786535E-2,-2.206312E-2,-5.275446E-2,-3.522245E-1,-1.0289009E-1,3.048854E-1,-3.323666E-2,1.5921614E-1,-7.41704E-2,-2.0199879E-1,4.4506177E-2,4.0965027E-1,1.02569856E-1,3.309536E-3,-3.4633637E-3,-6.759266E-3,4.6133297E-4,1.3844105E-2,5.5390418E-2,1.3041866E-2,-2.2030186E-2,7.585724E-3,-5.362788E-2,2.5077702E-3,-1.1043376E-2,-3.8083845E-3,4.4062074E-2,4.440933E-3,2.056369E-2,-2.9256973E-2,6.8462867E-4,-3.066281E-2,-1.2953147E-1,-7.7295224E-3,-5.1267054E-2,2.1500424E-4,-4.727707E-2,-1.3465582E-2,-4.0544074E-2,-5.8919527E-2,1.0192099E-2,1.3980294E-2,4.0006638E-2,2.0091837E-2,-4.8337232E-2,-1.1068395E-2,-4.4227686E-2,2.404519E-2,-2.6053894E-2,4.5520004E-2,1.6681736E-2,3.274095E-2,1.0528326E-3],"categories":[],"categories_nodes":[],"categories_segments":[],"categories_sizes":[],"default_left":[0,0,0,0,0,0,0,0,0,0,0,0,0,0,0,0,0,0,0,0,0,0,0,0,0,0,0,0,0,0,0,0,0,0,0,0,0,0,0,0,0,0,0,0,0,0,0,0,0,0,0,0,0,0,0,0,0,0,0,0,0,0,0,0,0,0,0,0,0,0,0,0,0,0,0,0,0,0,0,0,0,0,0,0,0,0,0,0,0,0,0,0,0,0,0],"id":16,"left_children":[1,3,5,7,9,11,13,15,17,19,21,23,25,27,-1,29,31,33,35,37,39,41,43,45,47,49,51,53,55,57,59,-1,-1,61,63,65,67,69,-1,71,73,75,77,-1,-1,79,81,83,-1,85,-1,87,89,91,93,-1,-1,-1,-1,-1,-1,-1,-1,-1,-1,-1,-1,-1,-1,-1,-1,-1,-1,-1,-1,-1,-1,-1,-1,-1,-1,-1,-1,-1,-1,-1,-1,-1,-1,-1,-1,-1,-1,-1,-1],"loss_changes":[5.582309E-1,3.7966987E-1,1.622408E0,1.3436334E0,1.1820201E0,1.2107308E0,4.2622977E-1,7.464475E-1,1.0546042E0,1.3623555E0,1.0495511E0,6.2209463E-1,8.591554E-1,2.3431766E-1,0E0,7.606947E-1,7.833737E-2,2.8807514E0,1.8857028E0,9.6063083E-1,2.884128E0,9.470871E-1,1.8532264E-1,4.7544193E-1,5.31193E-1,1.5049225E0,3.7490278E-1,2.904557E-1,5.4335576E-3,9.109259E-1,2.5893384E-1,0E0,0E0,1.962565E0,3.1020985E0,1.447183E0,1.2449733E0,7.390324E-1,0E0,6.462516E-1,1.22094154E-1,1.5408646E0,1.2936792E0,0E0,0E0,2.6959372E-1,1.3548602E0,6.9203973E-3,0E0,8.474451E-1,0E0,4.5568883E-1,6.005976E-1,2.3613572E-2,1.4141501E-1,0E0,0E0,0E0,0E0,0E0,0E0,0E0,0E0,0E0,0E0,0E0,0E0,0E0,0E0,0E0,0E0,0E0,0E0,0E0,0E0,0E0,0E0,0E0,0E0,0E0,0E0,0E0,0E0,0E0,0E0,0E0,0E0,0E0,0E0,0E0,0E0,0E0,0E0,0E0,0E0],"parents":[2147483647,0,0,1,1,2,2,3,3,4,4,5,5,6,6,7,7,8,8,9,9,10,10,11,11,12,12,13,13,15,15,16,16,17,17,18,18,19,19,20,20,21,21,22,22,23,23,24,24,25,25,26,26,27,27,28,28,29,29,30,30,33,33,34,34,35,35,36,36,37,37,39,39,40,40,41,41,42,42,45,45,46,46,47,47,49,49,51,51,52,52,53,53,54,54],"right_children":[2,4,6,8,10,12,14,16,18,20,22,24,26,28,-1,30,32,34,36,38,40,42,44,46,48,50,52,54,56,58,60,-1,-1,62,64,66,68,70,-1,72,74,76,78,-1,-1,80,82,84,-1,86,-1,88,90,92,94,-1,-1,-1,-1,-1,-1,-1,-1,-1,-1,-1,-1,-1,-1,-1,-1,-1,-1,-1,-1,-1,-1,-1,-1,-1,-1,-1,-1,-1,-1,-1,-1,-1,-1,-1,-1,-1,-1,-1,-1],"split_conditions":[1E0,1E0,1E0,1E0,1E0,1E0,1E0,1E0,1E0,1E0,1E0,1E0,1E0,1E0,-2.6561989E-2,1E0,1E0,1E0,1E0,1E0,1E0,2E0,1E0,1E0,1E0,1E0,1E0,1E0,1E0,1E0,1E0,7.5347545E-3,4.965118E-2,1E0,1E0,1E0,2E0,1E0,-4.8585843E-2,2E0,1E0,1E0,1E0,-2.206312E-2,-5.275446E-2,2E0,2E0,1E0,-3.323666E-2,1E0,-7.41704E-2,1E0,1E0,1E0,2E0,3.309536E-3,-3.4633637E-3,-6.759266E-3,4.6133297E-4,1.3844105E-2,5.5390418E-2,1.3041866E-2,-2.2030186E-2,7.585724E-3,-5.362788E-2,2.5077702E-3,-1.1043376E-2,-3.8083845E-3,4.4062074E-2,4.440933E-3,2.056369E-2,-2.9256973E-2,6.8462867E-4,-3.066281E-2,-1.2953147E-1,-7.7295224E-3,-5.1267054E-2,2.1500424E-4,-4.727707E-2,-1.3465582E-2,-4.0544074E-2,-5.8919527E-2,1.0192099E-2,1.3980294E-2,4.0006638E-2,2.0091837E-2,-4.8337232E-2,-1.1068395E-2,-4.4227686E-2,2.404519E-2,-2.6053894E-2,4.5520004E-2,1.6681736E-2,3.274095E-2,1.0528326E-3],"split_indices":[16,24,2,6,6,4,22,18,4,3,12,3,3,1,0,19,25,7,7,18,13,0,4,26,22,22,5,25,23,4,22,0,0,19,1,22,0,2,0,0,2,3,19,0,0,0,0,23,0,1,0,24,25,23,0,0,0,0,0,0,0,0,0,0,0,0,0,0,0,0,0,0,0,0,0,0,0,0,0,0,0,0,0,0,0,0,0,0,0,0,0,0,0,0,0],"split_type":[0,0,0,0,0,0,0,0,0,0,0,0,0,0,0,0,0,0,0,0,0,0,0,0,0,0,0,0,0,0,0,0,0,0,0,0,0,0,0,0,0,0,0,0,0,0,0,0,0,0,0,0,0,0,0,0,0,0,0,0,0,0,0,0,0,0,0,0,0,0,0,0,0,0,0,0,0,0,0,0,0,0,0,0,0,0,0,0,0,0,0,0,0,0,0],"sum_hessian":[2.002E3,1.883E3,1.19E2,1.499E3,3.84E2,1.01E2,1.8E1,7.21E2,7.78E2,1.94E2,1.9E2,4.3E1,5.8E1,1.7E1,1E0,7.18E2,3E0,3.36E2,4.42E2,1.48E2,4.6E1,1.78E2,1.2E1,3.9E1,4E0,2.8E1,3E1,1.4E1,3E0,7.05E2,1.3E1,1E0,2E0,3.04E2,3.2E1,4.19E2,2.3E1,1.46E2,2E0,4.4E1,2E0,4.3E1,1.35E2,8E0,4E0,2.7E1,1.2E1,3E0,1E0,2.7E1,1E0,2.2E1,8E0,8E0,6E0,1E0,2E0,3.16E2,3.89E2,1.2E1,1E0,2.88E2,1.6E1,1.8E1,1.4E1,3.15E2,1.04E2,8E0,1.5E1,1.08E2,3.8E1,8E0,3.6E1,1E0,1E0,3.3E1,1E1,1.3E2,5E0,6E0,2.1E1,3E0,9E0,2E0,1E0,2.6E1,1E0,1.7E1,5E0,5E0,3E0,6E0,2E0,1E0,5E0],"tree_param":{"num_deleted":"0","num_feature":"27","num_nodes":"95","size_leaf_vector":"1"}},{"base_weights":[-1.315723E-3,2.5525342E-3,-6.20364E-2,9.244103E-3,-2.3525143E-2,-1.07509315E-1,1.8534647E-1,-1.8631255E-2,3.5067935E-2,-6.8581104E-2,3.8260162E-2,-2.1960297E-1,-2.2091862E-2,2.2368115E-1,-2.5233889E-2,-7.793232E-3,-1.1202336E-1,7.285938E-2,6.2399767E-3,-5.7558455E-2,-4.5764044E-1,5.809894E-2,-3.076588E-1,-2.545652E-1,1.04015544E-1,-8.628074E-2,1.7194757E-1,2.7069026E-1,-8.523285E-3,2.3530092E-2,-4.702909E-2,-5.4917116E-2,-4.7772226E-1,1.00138545E-1,-1.8147409E-1,3.1119324E-2,-1.4157864E-1,-7.1459725E-2,2.1053457E-1,-5.6965318E-2,5.12116E-3,8.481357E-2,-2.1701373E-1,-4.3830942E-2,-3.4768225E-3,-3.18931E-1,-9.634924E-2,2.8789353E-1,-3.1574823E-2,-1.5628323E-1,1.7435627E-1,2.8685433E-1,-3.536088E-4,3.7559667E-1,9.714051E-2,3.1440617E-3,-3.232479E-3,-8.163004E-3,6.413409E-3,4.953638E-4,-2.1528134E-2,-1.6556507E-2,3.6281694E-3,-7.6852754E-2,-3.321152E-3,1.1742181E-2,-1.9956756E-2,6.867081E-3,-4.8622604E-2,9.012378E-3,-5.605684E-3,-1.3226635E-3,-8.333569E-2,-1.8484479E-2,-2.5321725E-3,4.1315E-3,6.480151E-2,1.2110207E-2,-1.1862832E-2,2.3620657E-3,-5.417964E-2,-4.300065E-2,-1.9399852E-2,-5.450057E-2,9.274826E-3,1.3048268E-2,3.8006306E-2,-4.590381E-2,-1.14849815E-2,3.2501023E-2,1.9751946E-3,3.717609E-2,-6.879171E-4,2.403797E-2,-2.4099851E-2,4.1618306E-2,1.5569623E-2,3.1103898E-2,9.650946E-4],"categories":[],"categories_nodes":[],"categories_segments":[],"categories_sizes":[],"default_left":[0,0,0,0,0,0,0,0,0,0,0,0,0,0,0,0,0,0,0,0,0,0,0,0,0,0,0,0,0,0,0,0,0,0,0,0,0,0,0,0,0,0,0,0,0,0,0,0,0,0,0,0,0,0,0,0,0,0,0,0,0,0,0,0,0,0,0,0,0,0,0,0,0,0,0,0,0,0,0,0,0,0,0,0,0,0,0,0,0,0,0,0,0,0,0,0,0,0,0],"id":17,"left_children":[1,3,5,7,9,11,13,15,17,19,21,23,25,27,-1,29,31,33,35,37,39,41,43,45,47,49,51,53,55,57,59,61,63,65,67,69,71,73,75,-1,-1,77,79,-1,-1,81,83,85,-1,87,89,91,93,95,97,-1,-1,-1,-1,-1,-1,-1,-1,-1,-1,-1,-1,-1,-1,-1,-1,-1,-1,-1,-1,-1,-1,-1,-1,-1,-1,-1,-1,-1,-1,-1,-1,-1,-1,-1,-1,-1,-1,-1,-1,-1,-1,-1,-1],"loss_changes":[4.7062936E-1,3.2897654E-1,1.369833E0,1.0804262E0,1.0743854E0,9.7177374E-1,3.7523556E-1,7.2992516E-1,8.482271E-1,9.2998624E-1,1.13648E0,5.2431345E-1,7.4969107E-1,1.987902E-1,0E0,7.97497E-1,1.5400418E0,2.3562799E0,1.6335963E0,8.274947E-1,3.7116027E-1,1.1575836E0,3.0564064E-1,3.766191E-1,4.7682846E-1,8.482847E-1,2.9707995E-1,2.3661149E-1,4.821115E-3,1.5466769E0,2.5199752E0,6.720106E-1,1.2671366E0,1.6033032E0,2.5490506E0,1.9596891E0,5.67161E0,1.0834422E0,7.875602E-1,0E0,0E0,1.0626955E0,1.106952E0,0E0,0E0,3.0513358E-1,1.1534659E0,8.442283E-3,0E0,3.9886963E-1,2.2649795E-1,2.2701669E-1,4.6344984E-1,1.5526652E-2,1.2799537E-1,0E0,0E0,0E0,0E0,0E0,0E0,0E0,0E0,0E0,0E0,0E0,0E0,0E0,0E0,0E0,0E0,0E0,0E0,0E0,0E0,0E0,0E0,0E0,0E0,0E0,0E0,0E0,0E0,0E0,0E0,0E0,0E0,0E0,0E0,0E0,0E0,0E0,0E0,0E0,0E0,0E0,0E0,0E0,0E0],"parents":[2147483647,0,0,1,1,2,2,3,3,4,4,5,5,6,6,7,7,8,8,9,9,10,10,11,11,12,12,13,13,15,15,16,16,17,17,18,18,19,19,20,20,21,21,22,22,23,23,24,24,25,25,26,26,27,27,28,28,29,29,30,30,31,31,32,32,33,33,34,34,35,35,36,36,37,37,38,38,41,41,42,42,45,45,46,46,47,47,49,49,50,50,51,51,52,52,53,53,54,54],"right_children":[2,4,6,8,10,12,14,16,18,20,22,24,26,28,-1,30,32,34,36,38,40,42,44,46,48,50,52,54,56,58,60,62,64,66,68,70,72,74,76,-1,-1,78,80,-1,-1,82,84,86,-1,88,90,92,94,96,98,-1,-1,-1,-1,-1,-1,-1,-1,-1,-1,-1,-1,-1,-1,-1,-1,-1,-1,-1,-1,-1,-1,-1,-1,-1,-1,-1,-1,-1,-1,-1,-1,-1,-1,-1,-1,-1,-1,-1,-1,-1,-1,-1,-1],"split_conditions":[1E0,1E0,1E0,1E0,1E0,1E0,1E0,1E0,1E0,1E0,1E0,1E0,1E0,1E0,-2.5233889E-2,1E0,1E0,1E0,1E0,1E0,1E0,1E0,3E0,1E0,1E0,1E0,1E0,1E0,1E0,1E0,1E0,1E0,1E0,1E0,1E0,1E0,1E0,2E0,1E0,-5.6965318E-2,5.12116E-3,1E0,1E0,-4.3830942E-2,-3.4768225E-3,1E0,2E0,1E0,-3.1574823E-2,2E0,1E0,1E0,1E0,1E0,2E0,3.1440617E-3,-3.232479E-3,-8.163004E-3,6.413409E-3,4.953638E-4,-2.1528134E-2,-1.6556507E-2,3.6281694E-3,-7.6852754E-2,-3.321152E-3,1.1742181E-2,-1.9956756E-2,6.867081E-3,-4.8622604E-2,9.012378E-3,-5.605684E-3,-1.3226635E-3,-8.333569E-2,-1.8484479E-2,-2.5321725E-3,4.1315E-3,6.480151E-2,1.2110207E-2,-1.1862832E-2,2.3620657E-3,-5.417964E-2,-4.300065E-2,-1.9399852E-2,-5.450057E-2,9.274826E-3,1.3048268E-2,3.8006306E-2,-4.590381E-2,-1.14849815E-2,3.2501023E-2,1.9751946E-3,3.717609E-2,-6.879171E-4,2.403797E-2,-2.4099851E-2,4.1618306E-2,1.5569623E-2,3.1103898E-2,9.650946E-4],"split_indices":[16,24,2,6,1,4,22,20,4,12,21,3,5,1,0,5,2,7,5,8,5,11,0,26,22,25,25,25,23,4,26,1,26,19,1,3,14,0,2,0,0,13,4,0,0,1,0,23,0,0,3,22,3,23,0,0,0,0,0,0,0,0,0,0,0,0,0,0,0,0,0,0,0,0,0,0,0,0,0,0,0,0,0,0,0,0,0,0,0,0,0,0,0,0,0,0,0,0,0],"split_type":[0,0,0,0,0,0,0,0,0,0,0,0,0,0,0,0,0,0,0,0,0,0,0,0,0,0,0,0,0,0,0,0,0,0,0,0,0,0,0,0,0,0,0,0,0,0,0,0,0,0,0,0,0,0,0,0,0,0,0,0,0,0,0,0,0,0,0,0,0,0,0,0,0,0,0,0,0,0,0,0,0,0,0,0,0,0,0,0,0,0,0,0,0,0,0,0,0,0,0],"sum_hessian":[2.002E3,1.883E3,1.19E2,1.499E3,3.84E2,1.01E2,1.8E1,7.21E2,7.78E2,2.22E2,1.62E2,4.3E1,5.8E1,1.7E1,1E0,6.47E2,7.4E1,3.36E2,4.42E2,2.17E2,5E0,1.54E2,8E0,3.9E1,4E0,4.4E1,1.4E1,1.4E1,3E0,3.6E2,2.87E2,6.5E1,9E0,3.04E2,3.2E1,3.79E2,6.3E1,2.07E2,1E1,4E0,1E0,1.41E2,1.3E1,5E0,3E0,2.7E1,1.2E1,3E0,1E0,3.5E1,9E0,8E0,6E0,8E0,6E0,1E0,2E0,1E2,2.6E2,2.2E2,6.7E1,2.9E1,3.6E1,5E0,4E0,2.88E2,1.6E1,1.8E1,1.4E1,2.26E2,1.53E2,5.4E1,9E0,5.9E1,1.48E2,8E0,2E0,1.2E2,2.1E1,8E0,5E0,1.3E1,1.4E1,3E0,9E0,2E0,1E0,3E0,3.2E1,4E0,5E0,6E0,2E0,3E0,3E0,6E0,2E0,1E0,5E0],"tree_param":{"num_deleted":"0","num_feature":"27","num_nodes":"99","size_leaf_vector":"1"}},{"base_weights":[-1.3641715E-3,5.4544806E-3,-3.2710925E-2,1.0818889E-2,-5.990619E-2,-7.615985E-2,1.6881071E-2,2.1386858E-2,-2.0664932E-2,-1.3702343E-1,1.2025761E-1,-1.10166006E-1,1.9007683E-1,-2.458937E-2,3.6383414E-1,2.7630493E-2,-1.3854101E-1,-1.2628533E-2,-2.6807126E-1,-7.41748E-2,-3.4700006E-1,2.7390823E-2,-3.938675E-3,-8.0170445E-2,-3.7541017E-1,5.020592E-1,-6.45309E-2,9.489478E-3,-3.8707942E-1,5.498522E-2,1.9547248E-1,4.429684E-2,1.5370662E-3,2.0684494E-2,-2.5401077E-1,-2.5535103E-2,1.6753606E-1,-5.3861182E-2,2.116544E-3,1.924342E-2,-1.2130225E-1,-4.5470044E-1,-1.991582E-2,6.1502513E-2,-1.8869894E-2,-3.9231803E-2,-2.4807577E-1,-5.541802E-1,1.6447392E-1,2.9920924E-1,6.450673E-2,-1.7956802E-1,2.3919463E-2,9.41847E-2,-1.8178786E-1,-6.7266953E-1,-1.8540941E-1,5.1266137E-3,2.431416E-2,6.932535E-3,-1.6148906E-3,4.020416E-3,-9.609411E-3,-1.4642834E-2,5.1788606E-2,-4.904772E-2,1.9949766E-4,9.2180235E-5,-1.3650991E-2,9.115211E-3,3.9422657E-2,3.1250574E-2,-3.0880177E-2,1.1219657E-2,-6.688275E-2,-2.3500638E-2,1.5537909E-2,-6.815785E-2,-3.1023761E-2,-2.348484E-2,2.7329955E-2,-1.1792528E-2,1.0837456E-2,-8.637781E-3,1.198163E-2,-3.3860125E-2,-1.9315528E-2,-3.5547644E-2,-9.123945E-2,2.4395403E-2,3.0169168E-3,5.161087E-3,4.101057E-2,-6.070573E-3,-3.4268506E-2,6.85059E-5,2.1158691E-2,2.8140277E-2,-2.3651004E-2,-9.291665E-3,-1.0281992E-1,-9.478646E-3,-2.1492315E-2],"categories":[],"categories_nodes":[],"categories_segments":[],"categories_sizes":[],"default_left":[0,0,0,0,0,0,0,0,0,0,0,0,0,0,0,0,0,0,0,0,0,0,0,0,0,0,0,0,0,0,0,0,0,0,0,0,0,0,0,0,0,0,0,0,0,0,0,0,0,0,0,0,0,0,0,0,0,0,0,0,0,0,0,0,0,0,0,0,0,0,0,0,0,0,0,0,0,0,0,0,0,0,0,0,0,0,0,0,0,0,0,0,0,0,0,0,0,0,0,0,0,0,0],"id":18,"left_children":[1,3,5,7,9,11,13,15,17,19,21,23,25,27,29,31,33,35,37,39,41,-1,43,45,47,49,51,53,55,-1,57,59,61,63,65,67,69,-1,71,73,75,77,79,81,-1,83,85,87,89,91,-1,93,-1,95,97,99,101,-1,-1,-1,-1,-1,-1,-1,-1,-1,-1,-1,-1,-1,-1,-1,-1,-1,-1,-1,-1,-1,-1,-1,-1,-1,-1,-1,-1,-1,-1,-1,-1,-1,-1,-1,-1,-1,-1,-1,-1,-1,-1,-1,-1,-1,-1],"loss_changes":[4.2830485E-1,5.7777077E-1,7.7267504E-1,5.068419E-1,1.7531952E0,1.750194E0,2.4261804E0,1.1421535E0,7.581167E-1,1.1355749E0,7.2622675E-1,1.3224483E0,1.7799271E0,1.8690127E0,4.5624852E-1,4.7743225E-1,7.958404E-1,8.6929226E-1,8.783012E-1,3.06111E-1,6.954863E-1,0E0,2.7760592E-1,1.048835E0,1.731905E0,9.70819E-2,4.9716794E-1,2.26896E0,6.240152E-1,0E0,6.315115E-2,1.0147406E0,1.6233871E0,1.6545196E0,1.5143977E0,1.0218711E0,3.9695323E-1,0E0,7.720421E-1,1.610041E0,1.4836664E0,2.8018045E-1,4.423131E-1,1.5575261E-1,0E0,9.4765985E-1,8.37487E-2,6.0098577E-1,4.601288E-2,1.435808E-1,0E0,1.730817E-1,0E0,1.0646303E0,1.1564673E0,9.350598E-1,3.6997795E-3,0E0,0E0,0E0,0E0,0E0,0E0,0E0,0E0,0E0,0E0,0E0,0E0,0E0,0E0,0E0,0E0,0E0,0E0,0E0,0E0,0E0,0E0,0E0,0E0,0E0,0E0,0E0,0E0,0E0,0E0,0E0,0E0,0E0,0E0,0E0,0E0,0E0,0E0,0E0,0E0,0E0,0E0,0E0,0E0,0E0,0E0],"parents":[2147483647,0,0,1,1,2,2,3,3,4,4,5,5,6,6,7,7,8,8,9,9,10,10,11,11,12,12,13,13,14,14,15,15,16,16,17,17,18,18,19,19,20,20,22,22,23,23,24,24,25,25,26,26,27,27,28,28,30,30,31,31,32,32,33,33,34,34,35,35,36,36,38,38,39,39,40,40,41,41,42,42,43,43,45,45,46,46,47,47,48,48,49,49,51,51,53,53,54,54,55,55,56,56],"right_children":[2,4,6,8,10,12,14,16,18,20,22,24,26,28,30,32,34,36,38,40,42,-1,44,46,48,50,52,54,56,-1,58,60,62,64,66,68,70,-1,72,74,76,78,80,82,-1,84,86,88,90,92,-1,94,-1,96,98,100,102,-1,-1,-1,-1,-1,-1,-1,-1,-1,-1,-1,-1,-1,-1,-1,-1,-1,-1,-1,-1,-1,-1,-1,-1,-1,-1,-1,-1,-1,-1,-1,-1,-1,-1,-1,-1,-1,-1,-1,-1,-1,-1,-1,-1,-1,-1],"split_conditions":[1E0,1E0,1E0,1E0,1E0,1E0,1E0,1E0,1E0,1E0,1E0,1E0,1E0,1E0,1E0,1E0,2E0,3E0,1E0,2E0,1E0,2.7390823E-2,1E0,1E0,3E0,1E0,1E0,1E0,1E0,5.498522E-2,2E0,1E0,1E0,1E0,1E0,1E0,1E0,-5.3861182E-2,2E0,1E0,1E0,1E0,1E0,1E0,-1.8869894E-2,1E0,1E0,1E0,1E0,2E0,6.450673E-2,1E0,2.3919463E-2,1E0,2E0,1E0,2E0,5.1266137E-3,2.431416E-2,6.932535E-3,-1.6148906E-3,4.020416E-3,-9.609411E-3,-1.4642834E-2,5.1788606E-2,-4.904772E-2,1.9949766E-4,9.2180235E-5,-1.3650991E-2,9.115211E-3,3.9422657E-2,3.1250574E-2,-3.0880177E-2,1.1219657E-2,-6.688275E-2,-2.3500638E-2,1.5537909E-2,-6.815785E-2,-3.1023761E-2,-2.348484E-2,2.7329955E-2,-1.1792528E-2,1.0837456E-2,-8.637781E-3,1.198163E-2,-3.3860125E-2,-1.9315528E-2,-3.5547644E-2,-9.123945E-2,2.4395403E-2,3.0169168E-3,5.161087E-3,4.101057E-2,-6.070573E-3,-3.4268506E-2,6.85059E-5,2.1158691E-2,2.8140277E-2,-2.3651004E-2,-9.291665E-3,-1.0281992E-1,-9.478646E-3,-2.1492315E-2],"split_indices":[22,7,3,24,2,8,14,15,19,26,3,14,1,8,6,5,0,0,5,0,3,0,26,13,0,6,5,2,1,0,0,3,4,26,5,13,17,0,0,25,25,1,4,4,0,2,4,2,1,0,0,2,0,1,0,4,0,0,0,0,0,0,0,0,0,0,0,0,0,0,0,0,0,0,0,0,0,0,0,0,0,0,0,0,0,0,0,0,0,0,0,0,0,0,0,0,0,0,0,0,0,0,0],"split_type":[0,0,0,0,0,0,0,0,0,0,0,0,0,0,0,0,0,0,0,0,0,0,0,0,0,0,0,0,0,0,0,0,0,0,0,0,0,0,0,0,0,0,0,0,0,0,0,0,0,0,0,0,0,0,0,0,0,0,0,0,0,0,0,0,0,0,0,0,0,0,0,0,0,0,0,0,0,0,0,0,0,0,0,0,0,0,0,0,0,0,0,0,0,0,0,0,0,0,0,0,0,0,0],"sum_hessian":[2.002E3,1.645E3,3.57E2,1.521E3,1.24E2,1.9E2,1.67E2,1.139E3,3.82E2,8.7E1,3.7E1,1.69E2,2.1E1,1.5E2,1.7E1,1.097E3,4.2E1,3.71E2,1.1E1,6.8E1,1.9E1,1.6E1,2.1E1,1.53E2,1.6E1,